<?xml version="1.0"?>
<opencv_storage>
<opencv_ml_svm>
  <format>3</format>
  <svmType>C_SVC</svmType>
  <kernel>
    <type>RBF</type>
    <gamma>3.3750000000000002e-02</gamma></kernel>
  <C>1.2500000000000000e+01</C>
  <term_criteria><iterations>4000</iterations></term_criteria>
  <var_count>172</var_count>
  <class_count>2</class_count>
  <class_labels type_id="opencv-matrix">
    <rows>2</rows>
    <cols>1</cols>
    <dt>i</dt>
    <data>
      0 1</data></class_labels>
  <sv_total>202</sv_total>
  <support_vectors>
    <_>
      0. 0. 0. 0. 0. 0. 0. 0. 0. 0. 0. 0. 0. 0. 0. 0. 0. 0. 0. 0. 0. 0.
      0. 9.41176474e-01 9.70588267e-01 8.52941155e-01 7.94117630e-01
      7.94117630e-01 8.52941155e-01 9.11764681e-01 9.11764681e-01
      8.52941155e-01 8.52941155e-01 7.94117630e-01 7.94117630e-01
      7.94117630e-01 7.05882370e-01 4.11764711e-01 8.52941155e-01
      8.82352948e-01 8.82352948e-01 8.82352948e-01 8.82352948e-01
      8.52941155e-01 4.70588237e-01 4.11764711e-01 5.00000000e-01
      5.00000000e-01 5.00000000e-01 4.70588237e-01 3.23529422e-01
      3.23529422e-01 2.05882356e-01 2.64705896e-01 2.35294119e-01
      2.35294119e-01 5.58823526e-01 8.52941155e-01 8.82352948e-01
      9.11764681e-01 8.82352948e-01 8.82352948e-01 7.94117630e-01
      5.58823526e-01 7.94117630e-01 8.82352948e-01 8.82352948e-01
      8.82352948e-01 7.05882370e-01 4.70588237e-01 4.11764711e-01
      6.76470578e-01 7.64705896e-01 8.23529422e-01 8.52941155e-01
      7.94117630e-01 7.35294104e-01 6.76470578e-01 8.23529422e-01
      7.94117630e-01 7.64705896e-01 7.35294104e-01 6.76470578e-01
      5.88235319e-01 4.11764711e-01 4.70588237e-01 6.17647052e-01
      7.35294104e-01 7.05882370e-01 7.94117630e-01 7.05882370e-01
      7.35294104e-01 8.52941155e-01 8.52941155e-01 8.52941155e-01
      7.05882370e-01 5.88235319e-01 7.05882370e-01 6.47058845e-01
      6.76470578e-01 7.35294104e-01 8.23529422e-01 7.94117630e-01
      7.05882370e-01 6.47058845e-01 8.23529422e-01 7.64705896e-01
      7.05882370e-01 6.76470578e-01 5.88235319e-01 4.70588237e-01
      4.41176474e-01 6.47058845e-01 7.05882370e-01 7.94117630e-01
      8.52941155e-01 7.35294104e-01 5.88235319e-01 6.47058845e-01
      8.52941155e-01 8.23529422e-01 7.94117630e-01 7.05882370e-01
      6.76470578e-01 1. 9.11764681e-01 2.94117648e-02 0. 0. 0. 0. 0. 0.
      0. 0. 0. 2.18750000e-01 3.12500000e-01 7.18750000e-01
      9.68750000e-01 9.79166687e-01 9.68750000e-01 9.79166687e-01
      9.06250000e-01 7.08333373e-01 6.66666687e-01 7.39583373e-01
      7.91666687e-01 8.85416687e-01 9.47916687e-01 9.68750000e-01
      9.47916687e-01 9.47916687e-01 8.22916687e-01 6.66666687e-01
      7.29166687e-01 8.33333373e-01 8.43750000e-01 8.75000000e-01
      9.27083373e-01 9.06250000e-01 8.64583373e-01 8.22916687e-01
      6.66666687e-01 3.95833343e-01 4.16666679e-02 2.29166672e-01
      6.66666687e-01 1. 8.12500000e-01 8.33333358e-02 0.</_>
    <_>
      1. 1. 9.44444478e-01 4.44444448e-01 3.33333343e-01 4.44444448e-01
      6.66666687e-01 6.94444478e-01 3.88888896e-01 5.55555582e-01
      7.77777791e-01 7.50000000e-01 4.16666657e-01 4.72222239e-01
      5.83333313e-01 6.38888896e-01 3.88888896e-01 2.22222224e-01
      2.22222224e-01 2.22222224e-01 2.22222224e-01 9.72222209e-01
      9.72222209e-01 9.72222209e-01 4.16666657e-01 3.88888896e-01
      3.88888896e-01 4.16666657e-01 3.88888896e-01 3.88888896e-01
      5.27777791e-01 5.27777791e-01 4.72222239e-01 2.77777791e-01
      1.94444448e-01 1.94444448e-01 1.94444448e-01 1.94444448e-01
      2.50000000e-01 2.50000000e-01 1.94444448e-01 1.94444448e-01
      1.94444448e-01 1.94444448e-01 7.22222209e-01 8.05555582e-01
      8.88888896e-01 3.61111104e-01 3.05555552e-01 1.94444448e-01
      1.94444448e-01 3.33333343e-01 3.88888896e-01 5.00000000e-01
      5.55555582e-01 5.27777791e-01 3.33333343e-01 1.94444448e-01
      1.94444448e-01 1.94444448e-01 1.66666672e-01 5.83333313e-01
      5.27777791e-01 5.27777791e-01 3.61111104e-01 4.16666657e-01
      5.00000000e-01 5.00000000e-01 4.72222239e-01 5.27777791e-01
      7.22222209e-01 6.66666687e-01 5.55555582e-01 3.61111104e-01
      1.94444448e-01 1.38888896e-01 1.11111112e-01 6.94444478e-01
      7.50000000e-01 7.77777791e-01 3.05555552e-01 3.33333343e-01
      3.05555552e-01 2.77777791e-01 2.77777791e-01 3.05555552e-01
      3.33333343e-01 6.38888896e-01 8.88888896e-01 8.61111104e-01
      6.38888896e-01 1.94444448e-01 1.94444448e-01 1.94444448e-01
      2.77777791e-01 3.88888896e-01 5.00000000e-01 5.27777791e-01
      5.55555582e-01 5.27777791e-01 5.55555582e-01 5.27777791e-01
      5.00000000e-01 5.27777791e-01 6.38888896e-01 5.55555582e-01
      5.00000000e-01 3.05555552e-01 1.94444448e-01 1.66666672e-01
      1.94444448e-01 2.77777791e-01 3.88888896e-01 4.72222239e-01
      5.27777791e-01 5.55555582e-01 5.27777791e-01 5.00000000e-01
      5.00000000e-01 5.00000000e-01 5.27777791e-01 5.83333313e-01
      5.83333313e-01 5.27777791e-01 3.61111104e-01 2.50000000e-01
      8.33333313e-01 1. 1. 1. 1. 1. 1. 1. 1. 1. 8.39694664e-02
      1.45038173e-01 3.74045789e-01 5.64885497e-01 5.72519064e-01
      3.74045789e-01 3.58778626e-01 3.43511462e-01 3.66412222e-01
      3.66412222e-01 3.43511462e-01 3.51145029e-01 3.96946579e-01
      4.19847339e-01 4.88549620e-01 4.42748100e-01 3.58778626e-01
      3.05343509e-01 3.05343509e-01 3.51145029e-01 3.58778626e-01
      3.89312983e-01 4.19847339e-01 4.12213743e-01 4.42748100e-01
      4.96183217e-01 5.80152690e-01 5.57251930e-01 6.71755731e-01
      9.69465673e-01 9.84732807e-01 9.31297719e-01 9.16030526e-01
      9.69465673e-01 9.77099240e-01 1.</_>
    <_>
      5.16129017e-01 5.16129017e-01 5.16129017e-01 5.16129017e-01
      5.16129017e-01 5.48387051e-01 5.48387051e-01 5.48387051e-01
      5.48387051e-01 5.48387051e-01 5.48387051e-01 4.51612890e-01
      2.25806445e-01 1.61290318e-01 7.41935492e-01 7.41935492e-01
      7.74193525e-01 7.41935492e-01 7.41935492e-01 7.74193525e-01
      8.06451559e-01 8.38709652e-01 8.38709652e-01 7.74193525e-01
      4.83870953e-01 9.67741907e-02 2.58064508e-01 6.77419305e-01
      8.38709652e-01 8.38709652e-01 8.38709652e-01 7.41935492e-01
      5.80645144e-01 5.16129017e-01 4.51612890e-01 4.19354826e-01
      3.54838699e-01 3.54838699e-01 3.54838699e-01 3.22580636e-01
      2.25806445e-01 1.93548381e-01 2.25806445e-01 2.58064508e-01
      2.25806445e-01 1.61290318e-01 1.29032254e-01 3.22580636e-01
      5.16129017e-01 6.12903237e-01 7.09677398e-01 7.74193525e-01
      8.38709652e-01 8.70967746e-01 9.67741907e-01 1. 1. 9.67741907e-01
      8.38709652e-01 4.51612890e-01 5.16129017e-01 3.87096763e-01
      5.48387051e-01 6.12903237e-01 7.41935492e-01 8.06451559e-01
      8.06451559e-01 7.41935492e-01 8.06451559e-01 1. 9.67741907e-01
      9.35483813e-01 9.03225780e-01 7.09677398e-01 5.16129017e-01
      4.51612890e-01 5.48387051e-01 5.80645144e-01 6.77419305e-01
      8.38709652e-01 9.03225780e-01 8.38709652e-01 7.41935492e-01
      7.41935492e-01 8.06451559e-01 7.41935492e-01 6.77419305e-01
      6.45161271e-01 4.83870953e-01 2.90322572e-01 1.93548381e-01
      1.29032254e-01 9.67741907e-02 5.16129017e-01 7.74193525e-01
      8.38709652e-01 8.38709652e-01 8.06451559e-01 6.45161271e-01
      4.19354826e-01 2.90322572e-01 3.22580636e-02 6.45161271e-02
      9.67741907e-02 3.54838699e-01 7.41935492e-01 8.06451559e-01
      8.06451559e-01 7.41935492e-01 5.48387051e-01 4.83870953e-01
      5.16129017e-01 7.41935492e-01 7.41935492e-01 6.77419305e-01
      5.48387051e-01 4.19354826e-01 0. 6.45161271e-02 0. 0.
      1.61290318e-01 6.77419305e-01 7.09677398e-01 7.09677398e-01
      7.41935492e-01 7.41935492e-01 7.41935492e-01 7.41935492e-01
      7.41935492e-01 7.41935492e-01 7.41935492e-01 7.41935492e-01
      7.41935492e-01 7.41935492e-01 7.41935492e-01 6.09523833e-01
      4.95238125e-01 5.33333361e-01 6.85714304e-01 7.14285731e-01
      8.38095248e-01 9.61904824e-01 9.61904824e-01 9.23809588e-01
      9.04761910e-01 8.38095248e-01 8.09523821e-01 9.23809588e-01
      9.52381015e-01 9.61904824e-01 1. 9.61904824e-01 8.09523821e-01
      7.14285731e-01 7.14285731e-01 6.57142878e-01 6.57142878e-01
      6.66666687e-01 5.80952406e-01 5.90476215e-01 6.47619069e-01
      5.80952406e-01 4.66666698e-01 4.47619051e-01 3.23809534e-01
      2.28571445e-01 8.57142881e-02 5.71428612e-02 3.33333343e-01
      3.71428579e-01 3.80952388e-01</_>
    <_>
      3.05555552e-01 3.05555552e-01 2.77777791e-01 3.05555552e-01
      2.77777791e-01 2.77777791e-01 4.44444448e-01 9.72222209e-01 1. 1.
      3.61111104e-01 3.61111104e-01 4.44444448e-01 3.61111104e-01
      4.16666657e-01 8.05555582e-01 8.88888896e-01 5.83333313e-01
      6.38888896e-01 8.33333313e-01 8.33333313e-01 8.33333313e-01
      8.33333313e-01 2.22222224e-01 2.22222224e-01 2.50000000e-01
      3.33333343e-01 4.72222239e-01 6.11111104e-01 6.66666687e-01
      7.50000000e-01 5.83333313e-01 5.55555582e-01 7.22222209e-01
      6.94444478e-01 5.83333313e-01 3.88888896e-01 2.50000000e-01
      1.94444448e-01 1.94444448e-01 2.22222224e-01 2.77777791e-01
      3.61111104e-01 3.61111104e-01 3.05555552e-01 2.77777791e-01
      2.50000000e-01 8.05555582e-01 8.05555582e-01 8.05555582e-01
      4.16666657e-01 3.61111104e-01 3.33333343e-01 4.44444448e-01
      4.44444448e-01 3.61111104e-01 7.50000000e-01 8.33333313e-01
      8.05555582e-01 5.27777791e-01 1.38888896e-01 1.66666672e-01
      1.66666672e-01 2.77777791e-01 5.00000000e-01 6.66666687e-01
      6.94444478e-01 5.00000000e-01 4.72222239e-01 5.27777791e-01
      5.55555582e-01 5.55555582e-01 4.16666657e-01 3.61111104e-01
      1.94444448e-01 1.38888896e-01 1.66666672e-01 3.05555552e-01
      6.66666687e-01 7.50000000e-01 7.50000000e-01 3.33333343e-01
      3.05555552e-01 4.16666657e-01 4.16666657e-01 4.44444448e-01
      6.11111104e-01 8.88888896e-01 8.33333313e-01 7.22222209e-01
      2.77777791e-01 2.77777791e-01 2.77777791e-01 5.27777791e-01
      6.66666687e-01 6.94444478e-01 5.83333313e-01 6.11111104e-01
      5.55555582e-01 5.83333313e-01 5.83333313e-01 6.94444478e-01
      6.38888896e-01 4.72222239e-01 3.61111104e-01 2.22222224e-01
      2.50000000e-01 2.77777791e-01 3.61111104e-01 4.72222239e-01
      5.55555582e-01 6.11111104e-01 6.38888896e-01 5.27777791e-01
      5.55555582e-01 5.55555582e-01 5.83333313e-01 6.38888896e-01
      5.55555582e-01 5.55555582e-01 8.05555582e-01 1. 1. 7.77777791e-01
      1.94444448e-01 1.94444448e-01 3.05555552e-01 3.61111104e-01
      3.88888896e-01 3.88888896e-01 3.88888896e-01 3.88888896e-01
      3.88888896e-01 3.88888896e-01 3.61111104e-01 3.61111104e-01 1.
      8.56000066e-01 8.16000044e-01 7.52000034e-01 2.40000010e-01
      2.16000006e-01 2.72000015e-01 4.32000011e-01 5.60000002e-01
      5.92000008e-01 6.00000024e-01 5.52000046e-01 5.36000013e-01
      5.04000008e-01 4.32000011e-01 4.16000009e-01 4.08000022e-01
      4.00000006e-01 4.40000027e-01 4.56000030e-01 4.72000033e-01
      4.40000027e-01 4.40000027e-01 4.64000016e-01 4.40000027e-01
      4.08000022e-01 3.76000017e-01 4.32000011e-01 4.88000035e-01
      7.04000056e-01 8.64000022e-01 8.08000028e-01 6.80000007e-01
      6.56000018e-01 6.56000018e-01 6.64000034e-01</_>
    <_>
      3.05555552e-01 3.05555552e-01 3.05555552e-01 3.05555552e-01
      3.05555552e-01 2.77777791e-01 2.77777791e-01 2.77777791e-01
      2.77777791e-01 3.05555552e-01 8.33333313e-01 8.88888896e-01
      8.88888896e-01 8.88888896e-01 3.61111104e-01 3.88888896e-01
      4.16666657e-01 3.88888896e-01 5.83333313e-01 7.77777791e-01
      7.77777791e-01 5.55555582e-01 7.22222209e-01 7.50000000e-01
      7.50000000e-01 7.50000000e-01 1.94444448e-01 1.94444448e-01
      2.22222224e-01 3.05555552e-01 4.44444448e-01 5.83333313e-01
      6.66666687e-01 7.22222209e-01 5.55555582e-01 5.27777791e-01
      6.66666687e-01 6.38888896e-01 5.27777791e-01 3.61111104e-01
      1.94444448e-01 1.94444448e-01 1.94444448e-01 2.22222224e-01
      2.77777791e-01 3.61111104e-01 3.05555552e-01 2.77777791e-01
      2.77777791e-01 5.55555582e-01 7.77777791e-01 8.05555582e-01
      8.05555582e-01 3.88888896e-01 3.88888896e-01 4.44444448e-01
      4.16666657e-01 4.44444448e-01 7.22222209e-01 7.50000000e-01
      7.77777791e-01 7.50000000e-01 1.94444448e-01 2.22222224e-01
      2.22222224e-01 4.44444448e-01 5.83333313e-01 7.77777791e-01
      6.94444478e-01 4.72222239e-01 4.72222239e-01 5.83333313e-01
      6.11111104e-01 6.11111104e-01 4.72222239e-01 3.61111104e-01
      2.22222224e-01 1.66666672e-01 1.38888896e-01 5.83333313e-01
      6.94444478e-01 7.22222209e-01 3.61111104e-01 3.33333343e-01
      4.16666657e-01 4.16666657e-01 4.44444448e-01 6.11111104e-01
      8.33333313e-01 8.05555582e-01 6.94444478e-01 2.77777791e-01
      2.77777791e-01 3.05555552e-01 5.55555582e-01 6.66666687e-01
      6.66666687e-01 6.11111104e-01 5.83333313e-01 5.55555582e-01
      5.83333313e-01 5.83333313e-01 6.38888896e-01 5.55555582e-01
      4.72222239e-01 2.50000000e-01 3.05555552e-01 3.05555552e-01
      3.61111104e-01 5.00000000e-01 6.11111104e-01 6.11111104e-01
      6.38888896e-01 6.11111104e-01 6.11111104e-01 6.38888896e-01
      6.66666687e-01 7.22222209e-01 6.38888896e-01 6.38888896e-01
      9.16666687e-01 1. 9.44444478e-01 6.11111104e-01 2.22222224e-01
      2.50000000e-01 3.05555552e-01 3.61111104e-01 3.61111104e-01
      3.61111104e-01 3.61111104e-01 3.61111104e-01 3.61111104e-01
      3.61111104e-01 3.61111104e-01 3.61111104e-01 1. 8.69230747e-01
      7.84615397e-01 7.46153831e-01 2.76923090e-01 2.76923090e-01
      3.92307699e-01 5.61538458e-01 6.23076916e-01 6.30769253e-01
      6.07692301e-01 5.07692337e-01 5.07692337e-01 4.07692313e-01
      4.07692313e-01 4.23076928e-01 4.38461542e-01 4.61538464e-01
      4.53846157e-01 4.38461542e-01 4.38461542e-01 4.53846157e-01
      4.46153849e-01 4.23076928e-01 4.00000006e-01 4.38461542e-01
      5.53846180e-01 7.69230783e-01 8.69230747e-01 7.38461554e-01
      6.84615374e-01 6.76923096e-01 5.69230795e-01 3.00000012e-01
      1.23076923e-01 5.38461544e-02</_>
    <_>
      0. 0. 0. 0. 0. 0. 0. 0. 0. 3.22580636e-02 9.67741907e-02
      1.61290318e-01 2.25806445e-01 2.90322572e-01 3.54838699e-01
      4.51612890e-01 4.83870953e-01 5.16129017e-01 5.48387051e-01
      6.45161271e-01 7.09677398e-01 7.74193525e-01 8.70967746e-01
      9.35483813e-01 9.35483813e-01 9.35483813e-01 9.35483813e-01
      9.35483813e-01 9.35483813e-01 9.35483813e-01 9.35483813e-01
      9.35483813e-01 9.35483813e-01 9.03225780e-01 9.03225780e-01
      9.03225780e-01 9.03225780e-01 8.70967746e-01 7.09677398e-01
      7.09677398e-01 6.45161271e-01 6.45161271e-01 8.38709652e-01
      9.03225780e-01 9.03225780e-01 9.67741907e-01 9.67741907e-01
      9.67741907e-01 1. 1. 9.35483813e-01 4.51612890e-01 4.19354826e-01
      8.06451559e-01 9.03225780e-01 8.70967746e-01 7.74193525e-01
      8.06451559e-01 8.38709652e-01 7.09677398e-01 6.12903237e-01
      4.19354826e-01 3.87096763e-01 4.51612890e-01 5.48387051e-01
      4.83870953e-01 3.87096763e-01 3.87096763e-01 4.19354826e-01
      4.19354826e-01 4.83870953e-01 8.06451559e-01 9.35483813e-01
      9.67741907e-01 7.41935492e-01 3.87096763e-01 3.87096763e-01
      3.87096763e-01 3.87096763e-01 3.54838699e-01 3.22580636e-01
      4.19354826e-01 7.09677398e-01 9.03225780e-01 9.35483813e-01
      8.06451559e-01 3.22580636e-01 3.22580636e-01 3.22580636e-01
      3.22580636e-01 4.51612890e-01 5.80645144e-01 6.77419305e-01
      6.45161271e-01 7.09677398e-01 7.74193525e-01 8.38709652e-01
      8.06451559e-01 6.12903237e-01 3.87096763e-01 1.61290318e-01
      4.83870953e-01 7.09677398e-01 7.41935492e-01 7.09677398e-01
      3.22580636e-01 3.22580636e-01 3.87096763e-01 6.12903237e-01
      7.09677398e-01 7.09677398e-01 6.12903237e-01 1.93548381e-01
      2.25806445e-01 3.87096763e-01 5.16129017e-01 5.80645144e-01
      5.48387051e-01 5.80645144e-01 6.45161271e-01 6.77419305e-01
      5.80645144e-01 3.54838699e-01 2.58064508e-01 2.25806445e-01
      4.19354826e-01 5.48387051e-01 5.80645144e-01 6.12903237e-01
      6.12903237e-01 6.12903237e-01 6.12903237e-01 6.12903237e-01
      6.12903237e-01 5.80645144e-01 5.80645144e-01 9.13793087e-01
      8.96551728e-01 8.87931049e-01 9.31034505e-01 9.65517223e-01 1.
      9.56896544e-01 9.22413766e-01 8.70689631e-01 8.36206913e-01
      8.27586174e-01 8.18965495e-01 7.58620679e-01 6.89655185e-01
      6.46551728e-01 6.29310369e-01 6.20689631e-01 6.12068951e-01
      6.20689631e-01 5.77586234e-01 5.51724136e-01 5.43103456e-01
      5.34482777e-01 5.77586234e-01 5.17241359e-01 4.82758611e-01
      4.56896544e-01 4.31034476e-01 3.44827592e-01 2.32758626e-01
      1.89655170e-01 1.29310340e-01 4.31034490e-02 0. 0. 0.</_>
    <_>
      0. 0. 0. 0. 0. 0. 0. 0. 0. 6.45161271e-02 9.67741907e-02
      1.93548381e-01 2.58064508e-01 3.22580636e-01 3.87096763e-01
      4.51612890e-01 5.16129017e-01 5.16129017e-01 5.80645144e-01
      6.45161271e-01 8.38709652e-01 8.38709652e-01 9.03225780e-01
      9.35483813e-01 9.35483813e-01 9.35483813e-01 9.35483813e-01
      9.35483813e-01 9.35483813e-01 9.35483813e-01 9.35483813e-01
      9.35483813e-01 9.35483813e-01 9.03225780e-01 9.03225780e-01
      9.03225780e-01 8.70967746e-01 7.41935492e-01 7.09677398e-01
      6.45161271e-01 6.45161271e-01 8.38709652e-01 9.35483813e-01
      9.35483813e-01 9.67741907e-01 9.67741907e-01 9.67741907e-01 1. 1.
      7.41935492e-01 4.51612890e-01 4.19354826e-01 9.35483813e-01
      9.03225780e-01 8.38709652e-01 7.74193525e-01 7.74193525e-01
      8.06451559e-01 6.77419305e-01 5.48387051e-01 4.19354826e-01
      4.19354826e-01 5.16129017e-01 5.16129017e-01 4.83870953e-01
      3.87096763e-01 4.19354826e-01 4.19354826e-01 4.51612890e-01
      7.41935492e-01 9.35483813e-01 9.67741907e-01 8.70967746e-01
      4.51612890e-01 4.19354826e-01 3.87096763e-01 3.87096763e-01
      3.54838699e-01 3.22580636e-01 3.87096763e-01 7.09677398e-01
      9.03225780e-01 9.35483813e-01 8.06451559e-01 3.22580636e-01
      3.22580636e-01 3.22580636e-01 3.87096763e-01 4.51612890e-01
      6.45161271e-01 6.77419305e-01 7.09677398e-01 7.41935492e-01
      8.38709652e-01 8.38709652e-01 7.41935492e-01 6.12903237e-01
      2.58064508e-01 9.67741907e-02 6.45161271e-01 7.74193525e-01
      8.06451559e-01 5.80645144e-01 3.22580636e-01 3.22580636e-01
      5.80645144e-01 7.74193525e-01 7.41935492e-01 6.77419305e-01
      1.61290318e-01 2.25806445e-01 3.87096763e-01 4.83870953e-01
      5.80645144e-01 5.80645144e-01 5.80645144e-01 6.45161271e-01
      7.09677398e-01 5.80645144e-01 4.19354826e-01 2.90322572e-01
      2.90322572e-01 4.51612890e-01 5.48387051e-01 5.80645144e-01
      6.12903237e-01 6.12903237e-01 6.12903237e-01 6.12903237e-01
      6.12903237e-01 6.12903237e-01 5.80645144e-01 5.80645144e-01
      5.80645144e-01 6.12903237e-01 6.12903237e-01 9.06779647e-01
      8.98305058e-01 8.72881353e-01 9.49152529e-01 9.49152529e-01 1.
      9.57627118e-01 9.32203412e-01 8.47457647e-01 8.47457647e-01
      8.13559294e-01 8.13559294e-01 7.45762706e-01 6.77966118e-01
      6.61016941e-01 6.52542353e-01 6.10169470e-01 6.35593235e-01
      6.10169470e-01 5.67796588e-01 5.50847471e-01 5.25423706e-01
      5.33898294e-01 5.59322059e-01 5.08474588e-01 4.49152529e-01
      4.49152529e-01 4.15254235e-01 3.55932206e-01 2.45762706e-01
      1.86440676e-01 1.27118647e-01 7.62711838e-02 0. 0. 1.69491526e-02</_>
    <_>
      0. 0. 0. 0. 0. 0. 0. 0. 0. 0. 0. 0. 0. 0. 0. 0. 5.55555560e-02
      7.50000000e-01 7.50000000e-01 6.38888896e-01 4.72222239e-01
      5.83333313e-01 6.94444478e-01 6.94444478e-01 6.66666687e-01
      3.88888896e-01 8.05555582e-01 8.33333313e-01 8.33333313e-01
      8.05555582e-01 0. 0. 1.38888896e-01 3.05555552e-01 5.27777791e-01
      7.22222209e-01 7.77777791e-01 7.22222209e-01 6.66666687e-01
      6.66666687e-01 7.22222209e-01 7.77777791e-01 6.66666687e-01
      5.27777791e-01 3.88888896e-01 1.66666672e-01 0. 0. 0.
      2.77777780e-02 8.33333358e-02 8.33333358e-02 2.77777780e-02 0. 0.
      0. 5.55555560e-02 8.33333358e-02 8.33333358e-02 8.33333358e-02
      8.33333358e-02 8.33333358e-02 4.44444448e-01 5.83333313e-01
      7.50000000e-01 8.05555582e-01 5.27777791e-01 3.88888896e-01
      2.77777791e-01 1.66666672e-01 5.55555560e-02 0. 1.38888896e-01
      3.61111104e-01 5.27777791e-01 6.11111104e-01 7.22222209e-01
      6.66666687e-01 6.66666687e-01 6.38888896e-01 6.38888896e-01
      6.11111104e-01 6.94444478e-01 6.11111104e-01 5.27777791e-01
      4.16666657e-01 3.33333343e-01 1.94444448e-01 0. 2.22222224e-01
      4.16666657e-01 5.00000000e-01 5.83333313e-01 6.94444478e-01
      7.22222209e-01 7.22222209e-01 7.22222209e-01 8.88888896e-01
      8.05555582e-01 7.77777791e-01 7.22222209e-01 6.66666687e-01
      6.11111104e-01 5.55555582e-01 5.27777791e-01 4.16666657e-01
      4.72222239e-01 6.66666687e-01 7.22222209e-01 7.22222209e-01
      8.88888896e-01 9.16666687e-01 9.16666687e-01 9.16666687e-01
      9.16666687e-01 9.16666687e-01 9.16666687e-01 9.44444478e-01 1. 1.
      1. 1. 1. 1. 1. 1. 1. 1. 1. 1. 1. 1. 1. 1. 1. 1. 8.86363685e-01
      9.54545498e-01 9.77272749e-01 8.86363685e-01 8.52272749e-01
      8.06818187e-01 8.06818187e-01 7.50000000e-01 7.50000000e-01
      7.61363685e-01 7.38636374e-01 7.95454562e-01 8.63636374e-01
      9.09090936e-01 9.43181872e-01 8.97727311e-01 8.86363685e-01
      8.86363685e-01 8.63636374e-01 8.52272749e-01 8.86363685e-01
      8.63636374e-01 8.63636374e-01 8.86363685e-01 8.86363685e-01 1.
      9.20454562e-01 8.97727311e-01 8.40909123e-01 7.72727311e-01
      6.02272749e-01 5.00000000e-01 3.18181813e-01 2.04545468e-01
      2.04545468e-01 2.15909094e-01</_>
    <_>
      0. 0. 0. 0. 0. 0. 0. 0. 0. 0. 2.77777780e-02 2.77777780e-02 0. 0.
      2.22222224e-01 4.72222239e-01 3.88888896e-01 0. 0. 0. 0. 0. 0.
      5.00000000e-01 8.61111104e-01 7.50000000e-01 4.44444448e-01
      4.16666657e-01 4.16666657e-01 4.44444448e-01 4.16666657e-01
      3.33333343e-01 3.05555552e-01 2.50000000e-01 1.11111112e-01 0. 0.
      0. 0. 8.33333358e-02 8.33333358e-02 0. 0. 0. 2.22222224e-01
      6.38888896e-01 8.05555582e-01 8.33333313e-01 6.11111104e-01
      3.61111104e-01 3.88888896e-01 4.16666657e-01 4.16666657e-01
      4.16666657e-01 5.00000000e-01 5.27777791e-01 8.05555582e-01
      7.22222209e-01 6.38888896e-01 4.44444448e-01 0. 1.11111112e-01
      3.61111104e-01 6.66666687e-01 8.61111104e-01 9.16666687e-01
      9.16666687e-01 4.16666657e-01 2.22222224e-01 1.66666672e-01
      1.38888896e-01 1.38888896e-01 1.94444448e-01 5.27777791e-01
      8.61111104e-01 1. 9.72222209e-01 9.44444478e-01 6.38888896e-01 0.
      2.77777780e-02 5.27777791e-01 8.05555582e-01 8.61111104e-01
      9.16666687e-01 9.44444478e-01 8.05555582e-01 4.44444448e-01
      3.33333343e-01 3.33333343e-01 3.33333343e-01 3.33333343e-01
      5.00000000e-01 8.05555582e-01 1. 1. 8.88888896e-01 8.05555582e-01
      7.50000000e-01 2.22222224e-01 1.66666672e-01 4.72222239e-01
      7.22222209e-01 7.50000000e-01 8.33333313e-01 8.61111104e-01
      8.88888896e-01 7.77777791e-01 6.66666687e-01 5.83333313e-01
      5.83333313e-01 6.11111104e-01 6.94444478e-01 9.72222209e-01
      9.72222209e-01 1. 9.72222209e-01 9.44444478e-01 9.16666687e-01
      7.77777791e-01 8.88888896e-01 9.44444478e-01 1. 1. 1. 1. 1. 1. 1.
      1. 1. 1. 1. 1. 1. 1. 8.02469134e-01 8.64197552e-01 9.38271642e-01
      9.75308657e-01 1. 9.25925910e-01 8.88888896e-01 8.39506149e-01
      8.39506149e-01 8.76543224e-01 8.51851881e-01 8.39506149e-01
      8.39506149e-01 8.27160478e-01 8.39506149e-01 9.01234567e-01
      9.25925910e-01 9.50617313e-01 9.13580239e-01 8.14814806e-01
      7.40740776e-01 7.53086448e-01 7.16049373e-01 7.53086448e-01
      7.77777791e-01 7.90123463e-01 8.14814806e-01 8.51851881e-01
      8.88888896e-01 9.38271642e-01 9.50617313e-01 9.75308657e-01
      9.01234567e-01 8.51851881e-01 7.03703701e-01 6.04938269e-01</_>
    <_>
      0. 0. 0. 0. 0. 0. 0. 0. 1.66666672e-01 3.00000012e-01
      4.00000036e-01 5.66666722e-01 5.33333361e-01 6.33333385e-01
      7.33333349e-01 9.00000036e-01 8.66666734e-01 8.66666734e-01
      8.66666734e-01 9.00000036e-01 9.00000036e-01 8.66666734e-01
      8.66666734e-01 8.66666734e-01 8.66666734e-01 8.66666734e-01
      8.33333373e-01 8.33333373e-01 6.66666687e-01 5.66666722e-01
      5.33333361e-01 8.33333373e-01 9.33333397e-01 9.66666698e-01
      9.66666698e-01 9.33333397e-01 8.66666734e-01 8.00000072e-01
      6.66666687e-01 5.66666722e-01 5.00000000e-01 4.66666698e-01
      4.66666698e-01 4.33333367e-01 4.00000036e-01 3.33333343e-01
      4.33333367e-01 5.00000000e-01 5.00000000e-01 5.66666722e-01
      7.00000048e-01 8.33333373e-01 8.33333373e-01 8.66666734e-01
      8.66666734e-01 8.00000072e-01 8.33333373e-01 7.66666710e-01
      7.66666710e-01 8.00000072e-01 8.33333373e-01 8.33333373e-01
      9.00000036e-01 9.66666698e-01 9.33333397e-01 8.66666734e-01
      8.00000072e-01 8.00000072e-01 7.66666710e-01 6.33333385e-01
      5.66666722e-01 6.00000024e-01 6.66666687e-01 8.00000072e-01
      9.33333397e-01 1. 9.33333397e-01 8.66666734e-01 8.33333373e-01
      8.66666734e-01 8.66666734e-01 8.66666734e-01 8.66666734e-01
      9.33333397e-01 9.66666698e-01 9.00000036e-01 9.00000036e-01
      9.33333397e-01 8.00000072e-01 8.66666734e-01 8.00000072e-01
      7.33333349e-01 7.00000048e-01 6.66666687e-01 7.33333349e-01
      8.33333373e-01 8.00000072e-01 8.00000072e-01 8.33333373e-01
      7.00000048e-01 5.66666722e-01 5.00000000e-01 5.33333361e-01
      6.66666687e-01 6.66666687e-01 5.66666722e-01 3.66666675e-01
      6.66666701e-02 0. 3.33333343e-01 5.66666722e-01 8.66666734e-01
      8.66666734e-01 8.00000072e-01 6.33333385e-01 4.33333367e-01
      1.66666672e-01 1.66666672e-01 1.00000009e-01 1.00000009e-01
      4.66666698e-01 6.33333385e-01 7.00000048e-01 6.33333385e-01
      4.00000036e-01 1.33333340e-01 0. 0. 0. 0. 0. 0. 0. 0. 0. 0.
      4.36170191e-01 4.78723377e-01 4.78723377e-01 4.46808487e-01
      3.93617004e-01 4.68085080e-01 4.89361674e-01 4.78723377e-01
      5.95744669e-01 7.02127635e-01 7.65957415e-01 8.82978678e-01
      8.93616974e-01 9.36170161e-01 8.82978678e-01 8.29787195e-01
      9.36170161e-01 9.46808457e-01 9.46808457e-01 9.36170161e-01
      9.78723347e-01 9.99999940e-01 9.99999940e-01 9.78723347e-01
      9.46808457e-01 9.46808457e-01 9.68085051e-01 9.89361644e-01
      8.40425491e-01 6.80851042e-01 5.53191483e-01 3.93617004e-01
      3.40425521e-01 4.46808487e-01 4.78723377e-01 5.21276593e-01</_>
    <_>
      0. 0. 0. 0. 0. 0. 0. 8.00000012e-01 8.00000012e-01 7.71428585e-01
      6.57142878e-01 6.28571451e-01 7.14285731e-01 7.14285731e-01
      7.14285731e-01 7.42857158e-01 8.28571439e-01 8.85714293e-01
      8.85714293e-01 6.28571451e-01 0. 0. 0. 3.14285725e-01
      6.57142878e-01 8.28571439e-01 8.28571439e-01 8.00000012e-01
      7.14285731e-01 7.71428585e-01 7.71428585e-01 6.28571451e-01
      5.42857170e-01 4.00000006e-01 2.28571430e-01 0. 0. 0. 0. 0. 0. 0.
      0. 0. 2.85714298e-01 8.85714293e-01 9.14285719e-01 9.42857146e-01
      8.85714293e-01 6.28571451e-01 4.28571433e-01 4.57142860e-01
      6.28571451e-01 8.00000012e-01 7.71428585e-01 7.14285731e-01
      5.14285743e-01 3.14285725e-01 8.57142881e-02 0. 0. 8.00000012e-01
      9.71428573e-01 1. 9.71428573e-01 9.14285719e-01 4.57142860e-01
      3.42857152e-01 3.71428579e-01 3.71428579e-01 4.28571433e-01
      6.85714304e-01 9.71428573e-01 9.71428573e-01 9.71428573e-01
      9.42857146e-01 6.85714304e-01 1.14285715e-01 6.28571451e-01
      7.71428585e-01 8.57142866e-01 8.85714293e-01 9.42857146e-01
      9.71428573e-01 4.00000006e-01 3.42857152e-01 3.71428579e-01
      3.71428579e-01 9.71428573e-01 9.14285719e-01 9.14285719e-01
      8.57142866e-01 7.71428585e-01 6.57142878e-01 2.57142872e-01
      1.71428576e-01 3.71428579e-01 5.14285743e-01 6.57142878e-01
      7.14285731e-01 8.00000012e-01 7.71428585e-01 7.14285731e-01
      6.85714304e-01 6.28571451e-01 6.85714304e-01 7.42857158e-01
      6.00000024e-01 4.57142860e-01 4.00000006e-01 3.14285725e-01
      2.00000003e-01 0. 4.00000006e-01 6.85714304e-01 7.42857158e-01
      7.71428585e-01 8.28571439e-01 8.00000012e-01 6.85714304e-01
      5.71428597e-01 5.42857170e-01 5.71428597e-01 6.00000024e-01
      7.71428585e-01 7.14285731e-01 6.57142878e-01 5.71428597e-01
      3.42857152e-01 0. 0. 0. 0. 0. 0. 0. 2.50000000e-01 3.75000000e-01
      6.02272749e-01 6.93181813e-01 7.95454562e-01 7.95454562e-01
      7.95454562e-01 7.72727311e-01 7.72727311e-01 7.95454562e-01
      8.18181872e-01 8.18181872e-01 8.52272749e-01 8.52272749e-01
      8.75000000e-01 9.31818187e-01 9.77272749e-01 1. 9.77272749e-01
      9.09090936e-01 9.20454562e-01 8.52272749e-01 8.63636374e-01
      8.52272749e-01 8.52272749e-01 8.75000000e-01 9.09090936e-01
      9.20454562e-01 9.20454562e-01 9.77272749e-01 8.75000000e-01
      7.72727311e-01 6.93181813e-01 5.45454562e-01 2.84090906e-01
      9.09090936e-02</_>
    <_>
      0. 0. 0. 0. 0. 0. 0. 0. 5.55555560e-02 3.33333343e-01
      7.50000000e-01 7.50000000e-01 3.61111104e-01 2.50000000e-01
      5.00000000e-01 6.66666687e-01 5.27777791e-01 2.77777791e-01
      4.72222239e-01 7.22222209e-01 8.05555582e-01 5.27777791e-01
      2.50000000e-01 0. 0. 0. 4.16666657e-01 8.33333313e-01
      8.61111104e-01 8.33333313e-01 7.22222209e-01 6.11111104e-01
      6.11111104e-01 5.83333313e-01 4.72222239e-01 4.72222239e-01
      3.88888896e-01 2.77777791e-01 1.66666672e-01 0. 0. 8.33333358e-02
      1.11111112e-01 1.11111112e-01 5.55555560e-02 0. 2.22222224e-01
      5.00000000e-01 7.77777791e-01 8.88888896e-01 8.05555582e-01
      5.27777791e-01 2.22222224e-01 1.38888896e-01 1.38888896e-01
      1.38888896e-01 1.38888896e-01 1.38888896e-01 1.66666672e-01
      1.38888896e-01 1.66666672e-01 1.38888896e-01 1.11111112e-01
      5.55555560e-02 3.88888896e-01 6.11111104e-01 7.22222209e-01
      8.05555582e-01 8.33333313e-01 4.44444448e-01 3.33333343e-01
      3.05555552e-01 3.05555552e-01 3.33333343e-01 3.61111104e-01
      6.66666687e-01 8.33333313e-01 7.77777791e-01 7.22222209e-01
      5.27777791e-01 2.22222224e-01 0. 3.33333343e-01 6.11111104e-01
      7.50000000e-01 8.05555582e-01 8.61111104e-01 5.83333313e-01
      4.16666657e-01 4.16666657e-01 5.27777791e-01 5.83333313e-01
      6.66666687e-01 8.88888896e-01 8.61111104e-01 8.33333313e-01
      7.77777791e-01 6.66666687e-01 4.16666657e-01 0. 0. 3.61111104e-01
      6.38888896e-01 7.77777791e-01 8.33333313e-01 8.88888896e-01
      8.33333313e-01 6.11111104e-01 5.55555582e-01 5.55555582e-01
      6.38888896e-01 7.77777791e-01 8.88888896e-01 8.61111104e-01
      8.61111104e-01 8.05555582e-01 5.27777791e-01 5.00000000e-01
      5.27777791e-01 6.66666687e-01 6.94444478e-01 6.94444478e-01
      8.05555582e-01 8.61111104e-01 8.88888896e-01 9.16666687e-01
      8.33333313e-01 9.16666687e-01 1. 1. 1. 1. 1. 1. 8.61111104e-01
      6.94444478e-01 4.56521749e-01 5.65217376e-01 7.17391312e-01
      8.47826123e-01 8.69565248e-01 8.26086998e-01 6.84782624e-01
      6.52173936e-01 6.52173936e-01 6.30434811e-01 6.63043499e-01
      7.17391312e-01 7.50000000e-01 7.60869563e-01 7.93478251e-01
      8.15217435e-01 8.47826123e-01 8.69565248e-01 8.36956561e-01
      8.47826123e-01 8.47826123e-01 8.36956561e-01 8.80434811e-01
      8.69565248e-01 8.69565248e-01 8.69565248e-01 9.13043499e-01 1.
      9.56521749e-01 9.34782624e-01 8.80434811e-01 7.39130437e-01
      4.67391312e-01 2.39130437e-01 2.28260875e-01 1.73913047e-01</_>
    <_>
      0. 0. 0. 0. 0. 0. 0. 0. 0. 0. 2.77777780e-02 7.22222209e-01
      7.50000000e-01 7.22222209e-01 6.66666687e-01 6.66666687e-01
      6.66666687e-01 6.94444478e-01 6.94444478e-01 7.50000000e-01
      8.05555582e-01 8.33333313e-01 7.50000000e-01 2.77777780e-02
      1.11111112e-01 2.22222224e-01 5.83333313e-01 7.77777791e-01
      8.33333313e-01 7.77777791e-01 7.50000000e-01 7.50000000e-01
      7.50000000e-01 6.11111104e-01 5.00000000e-01 3.61111104e-01
      1.38888896e-01 0. 0. 1.11111112e-01 1.38888896e-01 1.11111112e-01
      5.55555560e-02 2.77777791e-01 8.33333313e-01 8.61111104e-01
      8.61111104e-01 8.33333313e-01 5.83333313e-01 3.33333343e-01
      3.05555552e-01 3.33333343e-01 6.11111104e-01 8.33333313e-01
      8.61111104e-01 8.33333313e-01 8.05555582e-01 0. 0. 0. 0. 0.
      7.77777791e-01 8.61111104e-01 8.88888896e-01 8.61111104e-01
      8.33333313e-01 2.50000000e-01 0. 0. 0. 0. 0. 0. 0. 0.
      5.55555582e-01 1. 1. 1. 1. 6.38888896e-01 1.11111112e-01 0. 0. 0.
      0. 5.00000000e-01 7.22222209e-01 8.05555582e-01 8.61111104e-01
      9.16666687e-01 6.66666687e-01 6.38888896e-01 6.66666687e-01
      8.88888896e-01 8.61111104e-01 8.05555582e-01 7.22222209e-01
      4.44444448e-01 2.22222224e-01 5.27777791e-01 6.66666687e-01
      7.50000000e-01 8.33333313e-01 8.61111104e-01 6.38888896e-01
      5.27777791e-01 5.27777791e-01 6.11111104e-01 8.33333313e-01
      8.05555582e-01 7.50000000e-01 6.66666687e-01 6.38888896e-01
      5.27777791e-01 4.72222239e-01 1.66666672e-01 0. 0. 0. 0.
      3.61111104e-01 1. 1. 1. 1. 1. 9.16666687e-01 8.88888896e-01
      8.61111104e-01 8.61111104e-01 8.33333313e-01 8.05555582e-01
      7.50000000e-01 7.50000000e-01 1.77777782e-01 2.55555570e-01
      3.55555564e-01 4.77777779e-01 6.11111104e-01 6.66666687e-01
      8.22222233e-01 8.44444454e-01 7.77777791e-01 7.66666710e-01
      7.66666710e-01 8.11111152e-01 9.22222257e-01 9.44444478e-01
      9.44444478e-01 9.55555558e-01 1. 1. 9.33333337e-01 9.55555558e-01
      9.22222257e-01 8.66666675e-01 8.66666675e-01 8.77777815e-01
      8.88888896e-01 9.55555558e-01 9.66666698e-01 9.44444478e-01
      9.44444478e-01 8.88888896e-01 8.44444454e-01 7.77777791e-01
      6.00000024e-01 2.66666681e-01 2.55555570e-01 2.88888901e-01</_>
    <_>
      0. 0. 0. 0. 0. 0. 0. 2.50000000e-01 5.27777791e-01 6.11111104e-01
      1.11111112e-01 8.33333358e-02 3.61111104e-01 7.50000000e-01
      7.50000000e-01 6.94444478e-01 6.38888896e-01 6.94444478e-01
      6.94444478e-01 6.94444478e-01 6.94444478e-01 7.50000000e-01
      7.22222209e-01 7.50000000e-01 4.16666657e-01 0. 8.33333358e-02
      2.50000000e-01 5.83333313e-01 8.05555582e-01 8.33333313e-01
      7.77777791e-01 7.22222209e-01 7.22222209e-01 6.94444478e-01
      6.38888896e-01 5.83333313e-01 5.00000000e-01 3.61111104e-01
      2.50000000e-01 8.33333358e-02 1.66666672e-01 1.94444448e-01
      2.22222224e-01 1.66666672e-01 1.11111112e-01 1.11111112e-01
      2.22222224e-01 2.77777791e-01 3.61111104e-01 4.16666657e-01
      7.77777791e-01 7.77777791e-01 7.77777791e-01 8.33333313e-01
      8.61111104e-01 7.77777791e-01 3.05555552e-01 2.22222224e-01
      1.38888896e-01 5.55555560e-02 5.55555560e-02 8.33333358e-02
      8.33333358e-02 5.55555560e-02 5.55555560e-02 3.05555552e-01
      8.05555582e-01 8.33333313e-01 8.33333313e-01 8.33333313e-01
      8.05555582e-01 3.88888896e-01 5.55555560e-02 5.55555560e-02
      5.55555560e-02 5.55555560e-02 5.55555560e-02 5.55555560e-02
      5.55555560e-02 5.55555560e-02 5.55555560e-02 8.05555582e-01
      8.33333313e-01 8.61111104e-01 8.61111104e-01 8.61111104e-01
      8.05555582e-01 5.00000000e-01 1.66666672e-01 1.38888896e-01
      1.38888896e-01 2.77777791e-01 5.27777791e-01 6.38888896e-01
      6.38888896e-01 6.94444478e-01 7.77777791e-01 8.05555582e-01
      8.33333313e-01 8.05555582e-01 8.61111104e-01 8.33333313e-01
      7.77777791e-01 7.22222209e-01 6.38888896e-01 6.11111104e-01
      6.11111104e-01 8.61111104e-01 8.88888896e-01 9.16666687e-01
      9.44444478e-01 9.72222209e-01 9.72222209e-01 9.72222209e-01
      9.72222209e-01 1. 8.88888896e-01 9.16666687e-01 1. 1. 1. 1. 1. 1.
      1. 1. 1. 1. 2.50000000e-01 0. 0. 0. 0. 0. 0. 1.82608694e-01
      2.17391297e-01 4.43478227e-01 6.08695626e-01 6.52173877e-01
      6.52173877e-01 6.52173877e-01 6.52173877e-01 6.08695626e-01
      5.99999964e-01 6.34782553e-01 6.26086950e-01 6.17391288e-01
      6.60869539e-01 7.04347789e-01 7.21739113e-01 7.13043451e-01
      7.04347789e-01 6.86956465e-01 7.04347789e-01 6.95652127e-01
      6.86956465e-01 6.95652127e-01 7.13043451e-01 7.04347789e-01
      6.43478215e-01 6.52173877e-01 6.17391288e-01 5.56521714e-01
      3.99999976e-01 2.78260857e-01 1.73913032e-01 1.39130428e-01
      6.69565201e-01 9.99999940e-01 9.56521690e-01</_>
    <_>
      6.11111104e-01 6.11111104e-01 6.38888896e-01 6.11111104e-01
      5.27777791e-01 5.55555582e-01 9.16666687e-01 9.44444478e-01
      9.16666687e-01 9.16666687e-01 8.61111104e-01 8.33333313e-01
      8.61111104e-01 8.61111104e-01 8.61111104e-01 8.61111104e-01
      8.88888896e-01 9.44444478e-01 1. 1. 9.72222209e-01 7.77777791e-01
      5.27777791e-01 3.88888896e-01 5.55555582e-01 7.77777791e-01
      8.33333313e-01 9.44444478e-01 8.61111104e-01 8.61111104e-01
      8.05555582e-01 7.50000000e-01 7.50000000e-01 8.33333313e-01
      9.44444478e-01 9.16666687e-01 7.77777791e-01 5.55555582e-01
      2.77777791e-01 5.55555560e-02 0. 0. 8.33333358e-02 8.33333358e-02
      1.11111112e-01 1.11111112e-01 8.33333358e-02 2.77777780e-02 0.
      1.38888896e-01 3.33333343e-01 4.72222239e-01 5.27777791e-01
      6.11111104e-01 6.66666687e-01 7.50000000e-01 6.94444478e-01
      6.94444478e-01 7.22222209e-01 6.94444478e-01 6.11111104e-01
      5.27777791e-01 4.72222239e-01 2.50000000e-01 1.38888896e-01 0. 0.
      5.55555560e-02 1.66666672e-01 2.50000000e-01 3.61111104e-01
      4.16666657e-01 4.16666657e-01 3.88888896e-01 4.44444448e-01
      5.83333313e-01 8.88888896e-01 9.72222209e-01 1. 1. 7.77777791e-01
      8.33333358e-02 0. 0. 0. 5.27777791e-01 6.94444478e-01
      8.05555582e-01 8.61111104e-01 8.05555582e-01 3.33333343e-01
      2.77777791e-01 2.77777791e-01 2.50000000e-01 2.77777791e-01
      3.88888896e-01 8.61111104e-01 8.05555582e-01 7.50000000e-01
      5.55555582e-01 0. 0. 5.55555560e-02 4.72222239e-01 6.94444478e-01
      8.05555582e-01 8.61111104e-01 6.11111104e-01 4.44444448e-01
      3.88888896e-01 3.61111104e-01 4.44444448e-01 5.00000000e-01
      8.05555582e-01 7.77777791e-01 5.83333313e-01 2.22222224e-01 0. 0.
      0. 0. 8.33333358e-02 1.11111112e-01 1.11111112e-01 8.33333358e-02
      6.11111104e-01 9.16666687e-01 9.16666687e-01 8.88888896e-01
      1.11111112e-01 8.33333358e-02 8.33333358e-02 8.33333358e-02
      8.33333358e-02 0. 0. 5.32608688e-01 5.76086938e-01 7.17391312e-01
      9.02173936e-01 9.78260875e-01 1. 8.15217435e-01 7.60869563e-01
      7.60869563e-01 7.60869563e-01 7.71739125e-01 7.71739125e-01
      7.93478251e-01 7.71739125e-01 7.60869563e-01 7.82608688e-01
      8.69565248e-01 8.80434811e-01 8.58695686e-01 8.04347813e-01
      7.60869563e-01 7.71739125e-01 6.95652187e-01 7.06521749e-01
      6.73913062e-01 7.28260875e-01 7.71739125e-01 7.71739125e-01
      7.39130437e-01 6.63043499e-01 5.97826123e-01 6.52173936e-01
      6.63043499e-01 5.76086938e-01 4.56521749e-01 3.80434781e-01</_>
    <_>
      0. 0. 0. 0. 0. 0. 1.14285715e-01 3.71428579e-01 2.85714287e-02 0.
      0. 8.00000012e-01 8.28571439e-01 6.85714304e-01 2.57142872e-01
      3.14285725e-01 9.42857146e-01 1. 3.42857152e-01 3.14285725e-01
      7.42857158e-01 8.57142866e-01 4.85714287e-01 0. 8.57142881e-02
      9.71428573e-01 1. 9.71428573e-01 3.71428579e-01 1.71428576e-01
      1.42857149e-01 5.14285743e-01 7.42857158e-01 7.42857158e-01
      6.00000024e-01 4.85714287e-01 3.71428579e-01 2.28571430e-01
      1.71428576e-01 3.42857152e-01 5.42857170e-01 8.28571439e-01
      8.28571439e-01 8.57142866e-01 8.28571439e-01 7.14285731e-01
      6.57142878e-01 6.57142878e-01 6.57142878e-01 6.57142878e-01
      6.85714304e-01 6.85714304e-01 6.00000024e-01 6.00000024e-01
      6.00000024e-01 5.42857170e-01 5.14285743e-01 5.14285743e-01
      4.00000006e-01 3.71428579e-01 3.42857152e-01 2.28571430e-01
      3.71428579e-01 6.00000024e-01 8.85714293e-01 8.85714293e-01
      8.85714293e-01 6.28571451e-01 3.42857152e-01 2.28571430e-01
      2.28571430e-01 4.57142860e-01 5.42857170e-01 6.00000024e-01
      5.42857170e-01 5.42857170e-01 4.00000006e-01 3.71428579e-01
      4.57142860e-01 6.28571451e-01 8.85714293e-01 8.85714293e-01
      8.85714293e-01 8.28571439e-01 8.00000012e-01 7.71428585e-01
      7.71428585e-01 7.71428585e-01 4.85714287e-01 3.71428579e-01
      2.57142872e-01 2.85714298e-01 4.85714287e-01 6.00000024e-01
      6.85714304e-01 8.00000012e-01 8.85714293e-01 8.57142866e-01
      8.28571439e-01 7.14285731e-01 7.14285731e-01 7.14285731e-01
      7.14285731e-01 6.85714304e-01 4.85714287e-01 3.71428579e-01
      2.57142872e-01 2.28571430e-01 5.71428597e-01 6.85714304e-01
      8.00000012e-01 9.71428573e-01 9.71428573e-01 9.71428573e-01
      9.14285719e-01 7.14285731e-01 6.00000024e-01 4.57142860e-01
      4.00000006e-01 4.28571433e-01 4.28571433e-01 4.57142860e-01
      4.85714287e-01 5.42857170e-01 4.00000006e-01 5.42857170e-01
      6.28571451e-01 7.42857158e-01 1.14285715e-01 0. 0. 0. 0. 0. 0. 0.
      2.62626261e-01 3.43434334e-01 3.83838385e-01 9.59595978e-01 1.
      7.67676771e-01 5.35353541e-01 4.34343427e-01 4.34343427e-01
      7.47474730e-01 8.28282833e-01 8.48484874e-01 8.48484874e-01
      8.68686855e-01 8.58585835e-01 8.38383853e-01 8.08080792e-01
      7.57575750e-01 6.86868668e-01 7.07070708e-01 7.67676771e-01
      8.08080792e-01 8.78787875e-01 9.19191897e-01 8.88888896e-01
      8.68686855e-01 7.97979772e-01 7.37373710e-01 6.96969688e-01
      7.17171729e-01 6.66666687e-01 6.76767647e-01 6.56565666e-01
      5.75757563e-01 9.09090936e-02 0.</_>
    <_>
      0. 3.22580636e-02 6.45161271e-02 6.45161271e-02 9.67741907e-02
      1.93548381e-01 1.61290318e-01 9.67741907e-02 3.54838699e-01
      6.45161271e-01 6.12903237e-01 6.45161271e-01 8.38709652e-01
      8.06451559e-01 8.70967746e-01 7.74193525e-01 7.41935492e-01
      8.70967746e-01 8.70967746e-01 8.70967746e-01 8.70967746e-01
      8.38709652e-01 6.77419305e-01 5.16129017e-01 4.19354826e-01
      2.90322572e-01 3.54838699e-01 8.38709652e-01 8.70967746e-01
      9.03225780e-01 8.70967746e-01 9.03225780e-01 8.38709652e-01
      7.74193525e-01 7.09677398e-01 6.77419305e-01 5.80645144e-01
      4.83870953e-01 4.19354826e-01 4.19354826e-01 5.16129017e-01
      6.45161271e-01 5.16129017e-01 4.19354826e-01 4.19354826e-01
      4.83870953e-01 5.16129017e-01 4.83870953e-01 5.48387051e-01
      8.70967746e-01 9.67741907e-01 9.35483813e-01 8.06451559e-01
      6.12903237e-01 4.51612890e-01 3.87096763e-01 3.22580636e-01
      4.51612890e-01 6.45161271e-01 9.67741907e-01 8.70967746e-01
      8.06451559e-01 8.06451559e-01 8.70967746e-01 9.67741907e-01
      9.67741907e-01 9.03225780e-01 7.09677398e-01 6.12903237e-01
      5.80645144e-01 5.16129017e-01 5.80645144e-01 9.67741907e-01 1.
      9.35483813e-01 8.38709652e-01 6.77419305e-01 5.80645144e-01
      5.48387051e-01 5.48387051e-01 8.70967746e-01 9.03225780e-01
      8.70967746e-01 8.06451559e-01 7.09677398e-01 6.12903237e-01
      5.80645144e-01 4.51612890e-01 4.51612890e-01 3.22580636e-01
      5.16129017e-01 7.74193525e-01 8.06451559e-01 9.03225780e-01 1.
      7.41935492e-01 5.48387051e-01 4.19354826e-01 5.48387051e-01
      5.80645144e-01 5.48387051e-01 5.16129017e-01 5.48387051e-01
      9.67741907e-01 1. 9.03225780e-01 8.06451559e-01 7.09677398e-01
      5.80645144e-01 4.83870953e-01 4.19354826e-01 7.09677398e-01
      8.06451559e-01 7.09677398e-01 5.80645144e-01 4.83870953e-01
      4.51612890e-01 4.19354826e-01 2.25806445e-01 1.93548381e-01
      2.25806445e-01 2.58064508e-01 4.51612890e-01 4.51612890e-01
      4.83870953e-01 4.51612890e-01 4.19354826e-01 3.54838699e-01
      3.54838699e-01 3.22580636e-01 2.25806445e-01 1.93548381e-01
      6.45161271e-02 0. 0. 0. 0. 0. 0. 0. 7.37704858e-02 1.47540972e-01
      2.86885232e-01 2.70491779e-01 2.95081943e-01 3.27868819e-01
      3.52458984e-01 3.77049148e-01 3.93442601e-01 4.34426218e-01
      4.67213094e-01 4.75409806e-01 4.91803259e-01 5.73770463e-01
      6.06557369e-01 6.14754081e-01 6.55737638e-01 6.80327833e-01
      7.29508162e-01 8.19672108e-01 8.19672108e-01 8.77049148e-01
      9.42622900e-01 9.34426188e-01 9.50819612e-01 9.67213035e-01
      9.50819612e-01 9.34426188e-01 9.67213035e-01 9.18032765e-01
      9.99999940e-01 9.59016323e-01</_>
    <_>
      0. 0. 0. 0. 0. 0. 6.11111104e-01 7.50000000e-01 5.83333313e-01
      3.61111104e-01 3.61111104e-01 3.61111104e-01 2.50000000e-01
      3.33333343e-01 3.05555552e-01 3.05555552e-01 6.11111104e-01
      6.66666687e-01 5.83333313e-01 6.66666687e-01 6.66666687e-01
      6.66666687e-01 1. 1. 9.16666687e-01 7.50000000e-01 5.55555582e-01
      4.16666657e-01 2.50000000e-01 2.77777791e-01 3.33333343e-01
      3.33333343e-01 1.38888896e-01 1.11111112e-01 0. 2.22222224e-01
      3.88888896e-01 5.83333313e-01 6.94444478e-01 8.88888896e-01
      9.44444478e-01 8.88888896e-01 8.33333313e-01 7.77777791e-01
      7.77777791e-01 8.88888896e-01 7.77777791e-01 1.94444448e-01
      1.66666672e-01 1.66666672e-01 1.94444448e-01 3.33333343e-01
      7.22222209e-01 7.22222209e-01 7.22222209e-01 6.94444478e-01
      6.11111104e-01 5.55555582e-01 5.83333313e-01 6.38888896e-01
      7.22222209e-01 9.72222209e-01 1. 9.72222209e-01 3.61111104e-01
      3.05555552e-01 2.77777791e-01 2.22222224e-01 6.38888896e-01
      6.94444478e-01 6.94444478e-01 7.22222209e-01 6.66666687e-01
      3.33333343e-01 2.22222224e-01 2.50000000e-01 3.05555552e-01
      4.16666657e-01 1. 1. 8.05555582e-01 6.94444478e-01 5.55555582e-01
      4.72222239e-01 3.88888896e-01 4.72222239e-01 4.72222239e-01
      4.44444448e-01 4.72222239e-01 3.61111104e-01 2.50000000e-01
      3.05555552e-01 3.61111104e-01 4.44444448e-01 5.00000000e-01
      6.11111104e-01 7.22222209e-01 7.77777791e-01 7.50000000e-01
      7.22222209e-01 6.11111104e-01 0. 0. 0. 0. 1.94444448e-01 1. 1. 1.
      1. 1. 1. 1. 4.16666657e-01 3.05555552e-01 2.50000000e-01
      2.22222224e-01 2.50000000e-01 6.66666687e-01 7.22222209e-01
      7.22222209e-01 6.66666687e-01 4.72222239e-01 1.66666672e-01
      1.38888896e-01 2.22222224e-01 4.16666657e-01 9.44444478e-01
      8.05555582e-01 0. 0. 0. 0. 0. 0. 0. 8.95238101e-01 9.04761910e-01
      9.04761910e-01 8.66666675e-01 6.00000024e-01 5.04761934e-01
      4.28571433e-01 4.19047624e-01 4.19047624e-01 5.14285743e-01
      5.52380979e-01 5.52380979e-01 5.52380979e-01 5.42857170e-01
      5.42857170e-01 5.61904788e-01 5.42857170e-01 4.95238125e-01
      4.76190507e-01 4.38095242e-01 5.04761934e-01 5.71428597e-01
      7.04761922e-01 7.14285731e-01 7.04761922e-01 6.76190495e-01
      6.47619069e-01 6.19047642e-01 5.80952406e-01 5.90476215e-01
      5.80952406e-01 6.19047642e-01 7.33333349e-01 9.14285779e-01
      9.90476251e-01 1.</_>
    <_>
      0. 0. 0. 0. 0. 0. 5.88235319e-01 8.52941155e-01 5.00000000e-01
      1.76470593e-01 3.52941185e-01 6.76470578e-01 7.94117630e-01
      7.94117630e-01 7.94117630e-01 7.94117630e-01 8.82352948e-01
      8.52941155e-01 6.47058845e-01 6.47058845e-01 5.58823526e-01
      5.29411793e-01 4.11764711e-01 2.05882356e-01 2.64705896e-01
      2.64705896e-01 4.41176474e-01 5.00000000e-01 4.41176474e-01
      4.41176474e-01 3.52941185e-01 8.23529422e-01 9.70588267e-01 1.
      9.70588267e-01 8.52941155e-01 5.29411793e-01 3.82352948e-01
      4.41176474e-01 4.41176474e-01 4.11764711e-01 3.82352948e-01
      2.64705896e-01 5.58823526e-01 7.94117630e-01 8.82352948e-01
      9.41176474e-01 8.23529422e-01 6.76470578e-01 6.47058845e-01
      7.94117630e-01 7.35294104e-01 6.76470578e-01 5.88235319e-01
      3.82352948e-01 3.52941185e-01 4.70588237e-01 5.58823526e-01
      6.17647052e-01 7.35294104e-01 8.23529422e-01 7.64705896e-01
      6.76470578e-01 7.64705896e-01 6.76470578e-01 5.88235319e-01
      5.29411793e-01 4.41176474e-01 2.35294119e-01 3.23529422e-01
      4.41176474e-01 5.00000000e-01 6.47058845e-01 7.35294104e-01
      6.76470578e-01 7.05882370e-01 7.05882370e-01 7.64705896e-01
      8.23529422e-01 7.94117630e-01 6.17647052e-01 4.11764711e-01
      4.11764711e-01 5.29411793e-01 6.76470578e-01 8.23529422e-01
      8.82352948e-01 8.52941155e-01 8.52941155e-01 8.52941155e-01
      9.11764681e-01 8.23529422e-01 7.35294104e-01 6.47058845e-01
      5.29411793e-01 5.00000000e-01 5.29411793e-01 5.88235319e-01
      7.05882370e-01 8.23529422e-01 9.11764681e-01 8.82352948e-01
      8.52941155e-01 9.41176474e-01 8.82352948e-01 7.94117630e-01
      7.05882370e-01 7.94117630e-01 8.82352948e-01 1. 1. 9.41176474e-01
      8.82352963e-02 2.94117648e-02 2.94117648e-02 0. 0. 0. 0. 0.
      2.94117648e-02 5.88235296e-02 8.82352963e-02 2.05882356e-01
      2.35294119e-01 2.35294119e-01 2.35294119e-01 2.64705896e-01
      3.23529422e-01 2.94117659e-01 2.64705896e-01 2.35294119e-01
      1.76470593e-01 5.88235296e-02 0. 0. 8.00000012e-01 8.82352948e-01
      9.05882359e-01 8.94117653e-01 8.35294127e-01 5.88235319e-01
      4.82352942e-01 5.88235319e-01 6.58823550e-01 7.41176486e-01
      7.76470602e-01 7.76470602e-01 7.88235307e-01 8.11764717e-01
      8.70588243e-01 9.52941179e-01 9.88235295e-01 1. 9.29411769e-01
      8.94117653e-01 8.47058833e-01 7.52941191e-01 7.64705896e-01
      7.76470602e-01 8.47058833e-01 8.70588243e-01 8.47058833e-01
      8.47058833e-01 8.23529422e-01 7.88235307e-01 8.00000012e-01
      9.17647064e-01 9.17647064e-01 9.52941179e-01 5.52941203e-01
      4.23529416e-01</_>
    <_>
      0. 0. 0. 0. 0. 0. 5.14285743e-01 8.57142866e-01 1.71428576e-01
      5.71428575e-02 5.42857170e-01 8.85714293e-01 9.14285719e-01
      8.85714293e-01 9.71428573e-01 8.85714293e-01 8.57142866e-01
      8.85714293e-01 4.85714287e-01 5.42857170e-01 7.14285731e-01
      6.28571451e-01 7.14285731e-01 4.57142860e-01 2.85714287e-02
      2.57142872e-01 9.71428573e-01 1. 1. 1. 6.28571451e-01
      3.14285725e-01 3.42857152e-01 4.85714287e-01 7.42857158e-01
      9.42857146e-01 8.57142866e-01 6.85714304e-01 4.57142860e-01
      4.28571433e-01 4.00000006e-01 6.28571451e-01 6.85714304e-01
      7.14285731e-01 6.00000024e-01 5.42857170e-01 5.14285743e-01
      4.28571433e-01 2.85714298e-01 4.85714287e-01 6.00000024e-01
      6.28571451e-01 7.14285731e-01 7.71428585e-01 6.28571451e-01
      6.28571451e-01 6.28571451e-01 6.00000024e-01 6.85714304e-01
      8.00000012e-01 7.71428585e-01 7.14285731e-01 6.57142878e-01
      5.14285743e-01 3.14285725e-01 3.71428579e-01 5.42857170e-01
      5.42857170e-01 5.42857170e-01 6.28571451e-01 7.14285731e-01
      6.85714304e-01 6.28571451e-01 6.57142878e-01 6.28571451e-01
      6.28571451e-01 6.85714304e-01 6.85714304e-01 6.00000024e-01
      5.42857170e-01 3.14285725e-01 1.42857149e-01 5.71428575e-02
      3.71428579e-01 5.71428597e-01 6.28571451e-01 7.14285731e-01
      6.57142878e-01 6.57142878e-01 6.57142878e-01 6.00000024e-01
      6.28571451e-01 6.85714304e-01 7.14285731e-01 6.28571451e-01
      5.14285743e-01 3.14285725e-01 0. 5.71428575e-02 2.85714298e-01
      3.71428579e-01 4.57142860e-01 5.42857170e-01 5.71428597e-01
      5.71428597e-01 5.71428597e-01 6.57142878e-01 6.85714304e-01
      7.14285731e-01 8.57142866e-01 7.71428585e-01 6.85714304e-01
      5.42857170e-01 1.42857149e-01 0. 0. 3.71428579e-01 4.28571433e-01
      4.57142860e-01 6.00000024e-01 5.14285743e-01 6.00000024e-01
      6.28571451e-01 6.57142878e-01 7.14285731e-01 8.57142866e-01
      8.57142866e-01 7.42857158e-01 6.57142878e-01 3.71428579e-01 0.
      1.71428576e-01 2.57142872e-01 0. 0. 0. 9.89011005e-02
      3.29670340e-01 6.26373649e-01 7.58241773e-01 8.35164845e-01
      9.01098907e-01 1. 9.23076928e-01 8.57142866e-01 7.80219793e-01
      8.35164845e-01 8.24175835e-01 7.47252762e-01 7.69230783e-01
      7.91208804e-01 8.46153855e-01 9.78021979e-01 9.56043959e-01
      9.34065938e-01 8.35164845e-01 8.02197814e-01 7.58241773e-01
      6.26373649e-01 6.81318700e-01 7.80219793e-01 7.36263752e-01
      6.92307711e-01 6.37362659e-01 6.59340680e-01 7.14285731e-01
      8.90109897e-01 8.35164845e-01 7.69230783e-01 7.80219793e-01
      8.90109897e-01 9.56043959e-01</_>
    <_>
      0. 0. 0. 0. 0. 0. 8.33333358e-02 8.33333358e-02 1.11111112e-01
      8.33333358e-02 0. 2.77777780e-02 2.77777780e-02 5.55555560e-02
      3.61111104e-01 7.50000000e-01 1. 1. 9.16666687e-01 5.00000000e-01
      4.16666657e-01 7.50000000e-01 7.22222209e-01 6.94444478e-01
      7.77777791e-01 8.61111104e-01 8.88888896e-01 6.94444478e-01
      5.00000000e-01 5.27777791e-01 5.27777791e-01 5.00000000e-01
      3.05555552e-01 2.50000000e-01 6.38888896e-01 8.88888896e-01
      8.61111104e-01 8.88888896e-01 7.22222209e-01 5.83333313e-01
      6.11111104e-01 6.66666687e-01 8.33333313e-01 9.16666687e-01
      8.33333313e-01 6.94444478e-01 5.00000000e-01 3.05555552e-01
      2.77777791e-01 3.33333343e-01 3.88888896e-01 3.88888896e-01
      3.33333343e-01 2.77777791e-01 3.33333343e-01 3.88888896e-01
      3.88888896e-01 3.88888896e-01 3.61111104e-01 6.11111104e-01
      8.88888896e-01 9.16666687e-01 9.16666687e-01 6.66666687e-01
      3.61111104e-01 3.88888896e-01 3.61111104e-01 2.77777791e-01
      2.77777791e-01 2.77777791e-01 6.11111104e-01 7.50000000e-01
      7.50000000e-01 7.77777791e-01 6.38888896e-01 5.55555582e-01
      5.83333313e-01 4.44444448e-01 5.55555582e-01 7.50000000e-01
      6.66666687e-01 5.83333313e-01 4.44444448e-01 1.66666672e-01
      2.22222224e-01 4.72222239e-01 6.38888896e-01 6.94444478e-01
      7.50000000e-01 5.27777791e-01 4.72222239e-01 4.44444448e-01
      4.72222239e-01 5.83333313e-01 6.11111104e-01 5.27777791e-01
      4.44444448e-01 2.50000000e-01 1.94444448e-01 2.77777791e-01
      6.38888896e-01 7.50000000e-01 8.05555582e-01 6.38888896e-01
      5.00000000e-01 5.27777791e-01 5.83333313e-01 7.22222209e-01
      7.77777791e-01 7.50000000e-01 6.11111104e-01 3.33333343e-01
      1.66666672e-01 1.94444448e-01 2.77777791e-01 4.16666657e-01
      4.44444448e-01 5.27777791e-01 5.83333313e-01 6.38888896e-01
      6.38888896e-01 6.38888896e-01 6.38888896e-01 6.66666687e-01
      5.55555582e-01 4.16666657e-01 5.55555582e-01 8.33333313e-01
      8.33333313e-01 8.33333313e-01 6.94444478e-01 0. 0. 0. 0. 0. 1.
      9.68421102e-01 9.68421102e-01 8.52631629e-01 7.15789497e-01
      6.84210539e-01 5.89473724e-01 5.68421066e-01 5.68421066e-01
      5.36842108e-01 5.68421066e-01 6.42105281e-01 6.63157940e-01
      6.84210539e-01 7.57894754e-01 6.73684239e-01 6.10526323e-01
      5.68421066e-01 6.10526323e-01 6.21052682e-01 6.73684239e-01
      7.05263197e-01 6.31578982e-01 6.10526323e-01 6.84210539e-01
      6.84210539e-01 6.94736898e-01 6.84210539e-01 7.89473712e-01
      8.52631629e-01 8.52631629e-01 7.89473712e-01 8.63157928e-01
      7.68421113e-01 7.05263197e-01 6.31578982e-01</_>
    <_>
      1. 1. 9.16666687e-01 5.55555582e-01 3.61111104e-01 5.55555582e-01
      7.50000000e-01 6.94444478e-01 6.94444478e-01 6.11111104e-01
      7.22222209e-01 8.05555582e-01 8.61111104e-01 7.77777791e-01
      7.77777791e-01 6.66666687e-01 5.55555582e-01 2.77777791e-01
      1.11111112e-01 0. 0. 1.11111112e-01 5.00000000e-01 8.05555582e-01
      8.61111104e-01 8.61111104e-01 7.50000000e-01 6.11111104e-01
      6.66666687e-01 6.11111104e-01 5.83333313e-01 5.00000000e-01
      4.16666657e-01 3.33333343e-01 1.66666672e-01 5.55555560e-02 0.
      8.33333358e-02 1.38888896e-01 1.11111112e-01 0. 0. 3.33333343e-01
      6.94444478e-01 8.61111104e-01 8.33333313e-01 6.38888896e-01
      4.72222239e-01 1.38888896e-01 1.38888896e-01 1.38888896e-01
      1.38888896e-01 5.00000000e-01 8.33333313e-01 8.33333313e-01
      8.05555582e-01 5.55555582e-01 1.38888896e-01 4.44444448e-01
      7.50000000e-01 8.61111104e-01 8.88888896e-01 7.50000000e-01
      5.27777791e-01 2.77777791e-01 3.05555552e-01 3.05555552e-01
      3.88888896e-01 4.44444448e-01 4.16666657e-01 3.05555552e-01
      2.22222224e-01 0. 0. 0. 2.77777791e-01 4.72222239e-01
      5.55555582e-01 6.66666687e-01 6.66666687e-01 6.11111104e-01
      5.27777791e-01 4.72222239e-01 4.72222239e-01 5.00000000e-01
      4.44444448e-01 4.44444448e-01 3.61111104e-01 2.77777791e-01
      2.77777780e-02 8.33333358e-02 1.94444448e-01 1.94444448e-01
      1.94444448e-01 1.94444448e-01 1.38888896e-01 1.38888896e-01
      3.33333343e-01 6.11111104e-01 7.77777791e-01 8.61111104e-01
      8.61111104e-01 4.16666657e-01 2.77777791e-01 1.66666672e-01 0. 0.
      0. 0. 3.33333343e-01 5.00000000e-01 6.11111104e-01 6.94444478e-01
      6.11111104e-01 5.83333313e-01 5.27777791e-01 4.44444448e-01
      4.16666657e-01 4.72222239e-01 4.16666657e-01 3.61111104e-01
      2.77777791e-01 1.11111112e-01 4.72222239e-01 9.16666687e-01 1. 1.
      1. 1. 1. 1. 1. 1. 1. 1. 1. 2.65957445e-01 3.29787225e-01
      6.27659559e-01 8.08510602e-01 8.40425491e-01 8.61702085e-01
      8.40425491e-01 6.91489339e-01 7.02127635e-01 7.02127635e-01
      7.34042525e-01 7.23404229e-01 7.23404229e-01 7.34042525e-01
      7.97872305e-01 9.36170161e-01 9.99999940e-01 9.78723347e-01
      9.78723347e-01 9.25531864e-01 8.40425491e-01 7.76595712e-01
      7.34042525e-01 8.08510602e-01 8.19148898e-01 8.29787195e-01
      8.51063788e-01 7.97872305e-01 8.29787195e-01 7.76595712e-01
      7.12765932e-01 5.74468076e-01 3.51063818e-01 1.80851057e-01
      2.34042540e-01 2.55319148e-01</_>
    <_>
      1. 1. 1. 1. 1. 5.55555560e-02 0. 0. 1.66666672e-01 4.16666657e-01
      5.27777791e-01 5.83333313e-01 6.66666687e-01 7.50000000e-01
      8.05555582e-01 8.05555582e-01 7.50000000e-01 6.94444478e-01
      6.66666687e-01 3.88888896e-01 0. 0. 5.55555582e-01 6.94444478e-01
      7.77777791e-01 8.33333313e-01 5.00000000e-01 4.16666657e-01
      4.16666657e-01 5.00000000e-01 6.66666687e-01 6.94444478e-01
      7.50000000e-01 6.11111104e-01 4.72222239e-01 0. 0. 8.33333358e-02
      1.11111112e-01 1.11111112e-01 2.77777780e-02 0. 3.61111104e-01
      7.22222209e-01 8.33333313e-01 8.61111104e-01 8.61111104e-01
      3.33333343e-01 3.05555552e-01 3.05555552e-01 3.33333343e-01
      6.94444478e-01 8.05555582e-01 7.50000000e-01 6.66666687e-01
      3.61111104e-01 0. 7.77777791e-01 8.61111104e-01 8.61111104e-01
      7.77777791e-01 1.66666672e-01 1.66666672e-01 1.66666672e-01
      1.66666672e-01 1.66666672e-01 1.38888896e-01 8.33333358e-02 0. 0.
      0. 0. 0. 0. 1.38888896e-01 6.66666687e-01 7.77777791e-01
      8.05555582e-01 7.77777791e-01 6.38888896e-01 0. 0. 0. 0. 0. 0. 0.
      8.33333358e-02 1.11111112e-01 2.50000000e-01 4.72222239e-01
      5.83333313e-01 6.66666687e-01 6.94444478e-01 5.83333313e-01
      4.72222239e-01 3.61111104e-01 2.50000000e-01 1.11111112e-01 0.
      1.66666672e-01 3.05555552e-01 6.66666687e-01 7.22222209e-01
      7.77777791e-01 8.05555582e-01 6.11111104e-01 5.27777791e-01
      5.27777791e-01 5.55555582e-01 7.22222209e-01 8.05555582e-01
      7.77777791e-01 7.50000000e-01 6.66666687e-01 2.50000000e-01 0. 0.
      0. 4.44444448e-01 1. 1. 1. 1. 1. 1. 1. 1. 1. 1. 1. 1. 1. 1. 1. 1.
      2.58064508e-01 2.36559138e-01 2.25806445e-01 2.47311831e-01
      4.62365597e-01 6.45161271e-01 7.63440847e-01 8.81720424e-01
      8.60215068e-01 8.06451619e-01 7.31182814e-01 6.88172042e-01
      6.88172042e-01 6.98924720e-01 7.52688169e-01 7.74193525e-01
      8.27956975e-01 8.70967746e-01 8.81720424e-01 8.70967746e-01
      9.03225780e-01 8.70967746e-01 8.38709652e-01 8.06451619e-01
      8.17204297e-01 7.95698941e-01 8.06451619e-01 7.95698941e-01
      8.60215068e-01 8.92473102e-01 1. 9.67741907e-01 8.81720424e-01
      7.41935492e-01 5.37634432e-01 4.62365597e-01</_>
    <_>
      4.44444448e-01 4.44444448e-01 4.72222239e-01 4.72222239e-01
      4.72222239e-01 5.27777791e-01 6.11111104e-01 6.66666687e-01
      7.22222209e-01 7.22222209e-01 7.77777791e-01 8.61111104e-01
      8.88888896e-01 8.88888896e-01 9.16666687e-01 9.16666687e-01
      9.44444478e-01 9.44444478e-01 9.72222209e-01 9.72222209e-01 1.
      9.72222209e-01 9.72222209e-01 9.72222209e-01 8.33333313e-01
      1.11111112e-01 1.11111112e-01 1.66666672e-01 3.61111104e-01
      4.72222239e-01 5.00000000e-01 5.27777791e-01 4.16666657e-01
      8.33333358e-02 8.33333358e-02 8.33333358e-02 3.61111104e-01
      6.11111104e-01 3.05555552e-01 3.05555552e-01 3.61111104e-01
      4.16666657e-01 5.83333313e-01 5.27777791e-01 1.38888896e-01
      1.11111112e-01 1.38888896e-01 1.11111112e-01 8.33333358e-02
      8.33333358e-02 4.16666657e-01 5.83333313e-01 3.88888896e-01
      2.50000000e-01 2.22222224e-01 1.94444448e-01 2.50000000e-01
      2.50000000e-01 8.33333358e-02 2.50000000e-01 5.00000000e-01
      5.55555582e-01 2.77777791e-01 2.22222224e-01 1.66666672e-01
      1.66666672e-01 8.33333358e-02 8.33333358e-02 8.33333358e-02
      3.33333343e-01 4.44444448e-01 3.88888896e-01 3.88888896e-01
      3.88888896e-01 4.16666657e-01 3.05555552e-01 1.38888896e-01
      1.66666672e-01 1.94444448e-01 3.33333343e-01 4.72222239e-01
      3.33333343e-01 4.16666657e-01 3.88888896e-01 3.61111104e-01
      3.61111104e-01 0. 0. 3.05555552e-01 4.72222239e-01 2.50000000e-01
      1.66666672e-01 1.66666672e-01 2.22222224e-01 4.16666657e-01
      4.16666657e-01 0. 1.11111112e-01 4.44444448e-01 7.77777791e-01
      8.88888896e-01 8.88888896e-01 9.16666687e-01 8.88888896e-01
      9.16666687e-01 9.16666687e-01 9.16666687e-01 9.16666687e-01
      9.16666687e-01 9.16666687e-01 8.88888896e-01 8.88888896e-01
      5.27777791e-01 3.05555552e-01 3.05555552e-01 3.33333343e-01
      5.27777791e-01 6.66666687e-01 7.50000000e-01 6.66666687e-01
      3.88888896e-01 3.61111104e-01 5.00000000e-01 5.55555582e-01
      7.22222209e-01 1. 1. 1. 9.72222209e-01 1. 1. 1. 1. 9.72222209e-01
      9.16666687e-01 9.16666687e-01 3.19672108e-01 3.19672108e-01
      3.19672108e-01 4.01639313e-01 5.08196712e-01 5.57377040e-01
      5.57377040e-01 5.73770463e-01 6.06557369e-01 5.98360598e-01
      5.98360598e-01 5.81967175e-01 6.14754081e-01 6.72131121e-01
      7.13114738e-01 7.29508162e-01 6.88524544e-01 6.39344215e-01
      6.06557369e-01 5.98360598e-01 6.06557369e-01 5.57377040e-01
      5.57377040e-01 5.65573752e-01 5.08196712e-01 4.99999970e-01
      4.50819641e-01 4.42622930e-01 3.93442601e-01 3.44262272e-01
      4.18032765e-01 4.34426218e-01 5.73770463e-01 9.01639283e-01
      9.91803229e-01 9.99999940e-01</_>
    <_>
      0. 0. 0. 0. 0. 0. 0. 0. 1.21212125e-01 6.06060624e-01
      6.66666687e-01 6.96969748e-01 6.96969748e-01 6.66666687e-01
      7.57575750e-01 7.87878811e-01 7.87878811e-01 8.18181872e-01
      7.87878811e-01 7.57575750e-01 6.36363626e-01 4.84848499e-01
      3.63636374e-01 3.63636374e-01 6.66666687e-01 8.18181872e-01
      8.48484874e-01 9.69696999e-01 9.39393997e-01 7.27272749e-01
      5.15151501e-01 4.84848499e-01 4.54545468e-01 3.33333343e-01
      6.96969748e-01 1. 9.69696999e-01 9.09090936e-01 8.18181872e-01
      5.45454562e-01 9.09090936e-02 9.09090936e-02 1.51515156e-01
      4.24242437e-01 4.54545468e-01 3.93939406e-01 3.03030312e-01
      3.03030312e-01 2.12121218e-01 2.42424250e-01 3.63636374e-01
      4.24242437e-01 3.93939406e-01 7.27272749e-01 9.09090936e-01
      9.09090936e-01 8.48484874e-01 7.87878811e-01 6.36363626e-01
      6.06060624e-01 3.93939406e-01 3.93939406e-01 3.33333343e-01
      2.12121218e-01 1.51515156e-01 3.93939406e-01 7.27272749e-01
      8.78787875e-01 9.39393997e-01 9.39393997e-01 6.96969748e-01
      5.75757623e-01 5.45454562e-01 5.75757623e-01 6.06060624e-01
      6.66666687e-01 6.36363626e-01 8.48484874e-01 8.18181872e-01
      7.57575750e-01 6.36363626e-01 5.15151501e-01 3.63636374e-01
      3.93939406e-01 5.15151501e-01 6.66666687e-01 7.57575750e-01
      8.48484874e-01 8.78787875e-01 9.09090936e-01 9.09090936e-01
      8.18181872e-01 7.57575750e-01 6.96969748e-01 6.96969748e-01
      7.27272749e-01 6.96969748e-01 6.36363626e-01 5.75757623e-01
      5.15151501e-01 4.54545468e-01 4.24242437e-01 5.75757623e-01
      6.66666687e-01 7.57575750e-01 8.78787875e-01 9.09090936e-01
      7.87878811e-01 6.96969748e-01 6.06060624e-01 6.06060624e-01
      4.84848499e-01 6.06060624e-01 7.27272749e-01 7.27272749e-01
      6.66666687e-01 6.06060624e-01 4.54545468e-01 3.03030312e-01
      3.33333343e-01 3.63636374e-01 2.42424250e-01 2.72727281e-01
      2.72727281e-01 2.72727281e-01 1.51515156e-01 3.03030312e-02
      6.36363626e-01 6.96969748e-01 7.87878811e-01 7.87878811e-01
      7.57575750e-01 5.45454562e-01 2.42424250e-01 9.09090936e-02 0.
      5.92592597e-01 5.18518507e-01 6.01851881e-01 5.55555582e-01
      4.81481493e-01 4.81481493e-01 4.25925940e-01 4.53703701e-01
      5.46296299e-01 7.22222209e-01 7.87037015e-01 8.24074090e-01
      9.07407403e-01 9.35185194e-01 9.81481493e-01 9.81481493e-01 1.
      9.81481493e-01 8.79629612e-01 7.59259284e-01 6.75925910e-01
      7.50000000e-01 7.96296299e-01 7.96296299e-01 7.31481493e-01
      5.92592597e-01 4.35185194e-01 2.68518507e-01 2.96296299e-01
      5.74074090e-01 6.29629612e-01 6.38888896e-01 6.11111104e-01
      5.27777791e-01 1.57407403e-01 1.85185187e-02</_>
    <_>
      9.16666687e-01 9.16666687e-01 8.88888896e-01 9.72222209e-01 1. 1.
      1. 1. 1. 1. 1. 1. 1. 1. 1. 1. 1. 1. 1. 1. 1. 1. 1. 1. 1. 1. 1. 1.
      1. 1. 1. 1. 1. 8.33333313e-01 3.61111104e-01 0. 0. 5.55555560e-02
      1.94444448e-01 3.88888896e-01 5.83333313e-01 5.55555582e-01
      5.00000000e-01 2.22222224e-01 0. 0. 0. 8.33333358e-02
      1.11111112e-01 1.11111112e-01 1.11111112e-01 1.11111112e-01
      1.38888896e-01 3.88888896e-01 1.94444448e-01 0. 0. 0. 0. 0.
      1.11111112e-01 2.22222224e-01 3.05555552e-01 4.16666657e-01
      3.61111104e-01 3.33333343e-01 3.61111104e-01 1.66666672e-01 0. 0.
      0. 1.11111112e-01 1.11111112e-01 1.38888896e-01 2.77777791e-01
      3.61111104e-01 5.00000000e-01 5.27777791e-01 3.05555552e-01 0. 0.
      0. 8.33333358e-02 3.05555552e-01 3.05555552e-01 3.61111104e-01
      4.16666657e-01 3.61111104e-01 3.61111104e-01 3.88888896e-01
      1.94444448e-01 0. 0. 5.55555560e-02 1.66666672e-01 2.50000000e-01
      3.05555552e-01 3.33333343e-01 4.44444448e-01 3.88888896e-01
      3.88888896e-01 3.88888896e-01 3.05555552e-01 1.38888896e-01
      5.55555560e-02 8.33333358e-02 1.38888896e-01 1.66666672e-01
      1.94444448e-01 3.05555552e-01 3.33333343e-01 4.44444448e-01
      4.44444448e-01 4.44444448e-01 4.16666657e-01 2.77777791e-01
      8.33333358e-02 2.22222224e-01 6.38888896e-01 8.33333313e-01 1. 1.
      1. 1. 1. 1. 1. 1. 1. 1. 1. 1. 1. 1. 1. 1. 5.73033690e-01
      5.73033690e-01 5.73033690e-01 5.73033690e-01 5.73033690e-01
      6.74157321e-01 7.75280893e-01 8.31460655e-01 8.76404524e-01
      8.53932619e-01 8.31460655e-01 7.64044940e-01 8.42696667e-01
      8.76404524e-01 9.43820238e-01 9.88764048e-01 1. 9.77528095e-01
      9.43820238e-01 9.10112381e-01 8.65168571e-01 8.20224702e-01
      8.31460655e-01 8.20224702e-01 8.65168571e-01 9.55056190e-01
      9.32584286e-01 9.32584286e-01 8.87640476e-01 7.07865179e-01
      5.61797738e-01 5.39325833e-01 5.73033690e-01 5.84269643e-01
      5.95505595e-01 5.95505595e-01</_>
    <_>
      1. 1. 1. 1. 1. 1. 1. 1. 1. 0. 1.38888896e-01 5.27777791e-01
      6.66666687e-01 6.66666687e-01 6.11111104e-01 5.00000000e-01
      5.55555582e-01 7.22222209e-01 8.61111104e-01 8.88888896e-01
      8.61111104e-01 7.22222209e-01 6.11111104e-01 6.11111104e-01
      5.83333313e-01 3.05555552e-01 8.33333358e-02 0. 0. 8.05555582e-01
      8.61111104e-01 8.61111104e-01 8.61111104e-01 8.61111104e-01
      1.38888896e-01 1.38888896e-01 1.38888896e-01 1.38888896e-01
      1.66666672e-01 1.94444448e-01 7.22222209e-01 9.44444478e-01
      9.72222209e-01 9.16666687e-01 8.88888896e-01 7.77777791e-01 0. 0.
      8.33333358e-02 1.38888896e-01 1.38888896e-01 1.38888896e-01
      8.33333358e-02 0. 0. 0. 2.77777791e-01 4.16666657e-01
      5.55555582e-01 6.11111104e-01 6.66666687e-01 6.38888896e-01
      5.83333313e-01 5.55555582e-01 5.00000000e-01 5.00000000e-01
      5.27777791e-01 6.38888896e-01 5.55555582e-01 5.00000000e-01
      3.88888896e-01 2.77777791e-01 1.66666672e-01 0. 0. 5.00000000e-01
      6.38888896e-01 7.22222209e-01 7.77777791e-01 7.77777791e-01
      7.77777791e-01 5.55555582e-01 5.00000000e-01 4.72222239e-01
      5.00000000e-01 5.27777791e-01 6.66666687e-01 7.22222209e-01
      6.94444478e-01 6.38888896e-01 5.83333313e-01 4.72222239e-01
      8.33333358e-02 0. 0. 1.38888896e-01 5.55555582e-01 7.22222209e-01
      8.05555582e-01 8.05555582e-01 8.33333313e-01 6.38888896e-01
      5.27777791e-01 5.00000000e-01 5.27777791e-01 5.55555582e-01
      6.94444478e-01 8.61111104e-01 8.33333313e-01 8.05555582e-01
      6.94444478e-01 5.83333313e-01 1.38888896e-01 0. 5.55555560e-02
      8.33333358e-02 8.33333358e-02 8.33333358e-02 8.33333358e-02
      5.55555560e-02 2.77777780e-02 7.77777791e-01 8.88888896e-01
      9.16666687e-01 9.16666687e-01 9.16666687e-01 8.88888896e-01
      5.55555560e-02 0. 0. 0. 0. 0. 0. 0. 0. 2.39130437e-01
      2.06521749e-01 2.06521749e-01 5.10869563e-01 6.63043499e-01
      7.93478251e-01 8.26086998e-01 8.36956561e-01 7.06521749e-01
      6.30434811e-01 6.63043499e-01 7.06521749e-01 6.95652187e-01
      7.39130437e-01 7.50000000e-01 8.15217435e-01 9.56521749e-01
      9.89130437e-01 1. 9.67391312e-01 9.78260875e-01 8.47826123e-01
      7.82608688e-01 7.50000000e-01 7.17391312e-01 8.04347813e-01
      8.58695686e-01 8.58695686e-01 8.69565248e-01 8.69565248e-01
      8.58695686e-01 7.82608688e-01 7.06521749e-01 6.08695686e-01
      3.58695656e-01 2.39130437e-01</_>
    <_>
      1.51515156e-01 1.51515156e-01 1.51515156e-01 1.51515156e-01
      1.51515156e-01 1.51515156e-01 1.51515156e-01 1.51515156e-01
      1.51515156e-01 3.33333343e-01 8.48484874e-01 7.27272749e-01
      4.54545468e-01 5.75757623e-01 7.27272749e-01 7.87878811e-01
      7.57575750e-01 7.27272749e-01 7.27272749e-01 8.18181872e-01
      8.48484874e-01 8.18181872e-01 7.57575750e-01 6.96969748e-01
      6.96969748e-01 3.33333343e-01 2.42424250e-01 5.45454562e-01
      6.96969748e-01 7.57575750e-01 8.18181872e-01 8.48484874e-01
      4.84848499e-01 4.24242437e-01 5.75757623e-01 6.96969748e-01
      8.48484874e-01 7.87878811e-01 7.27272749e-01 6.06060624e-01
      4.24242437e-01 1.81818187e-01 2.72727281e-01 3.33333343e-01
      3.63636374e-01 3.33333343e-01 2.72727281e-01 2.42424250e-01
      2.72727281e-01 3.33333343e-01 3.33333343e-01 3.33333343e-01
      3.63636374e-01 8.48484874e-01 9.09090936e-01 9.09090936e-01
      9.09090936e-01 5.75757623e-01 3.63636374e-01 3.63636374e-01
      3.63636374e-01 2.72727281e-01 2.42424250e-01 6.36363626e-01
      6.96969748e-01 7.57575750e-01 7.87878811e-01 7.87878811e-01
      4.84848499e-01 4.54545468e-01 4.54545468e-01 4.54545468e-01
      8.48484874e-01 8.18181872e-01 7.87878811e-01 7.27272749e-01
      5.45454562e-01 2.42424250e-01 3.33333343e-01 4.84848499e-01
      5.45454562e-01 6.36363626e-01 7.27272749e-01 6.06060624e-01
      6.66666687e-01 6.36363626e-01 6.96969748e-01 7.57575750e-01
      6.96969748e-01 6.06060624e-01 5.15151501e-01 3.93939406e-01
      2.42424250e-01 3.33333343e-01 9.09090936e-01 1. 1. 9.69696999e-01
      6.96969748e-01 6.06060624e-01 6.06060624e-01 5.45454562e-01
      6.36363626e-01 7.27272749e-01 7.27272749e-01 6.66666687e-01
      5.15151501e-01 2.42424250e-01 2.42424250e-01 4.84848499e-01
      6.06060624e-01 6.66666687e-01 7.57575750e-01 7.27272749e-01
      6.96969748e-01 6.66666687e-01 6.66666687e-01 6.36363626e-01
      6.96969748e-01 5.75757623e-01 5.45454562e-01 4.24242437e-01
      3.33333343e-01 9.69696999e-01 9.09090936e-01 6.06060624e-01
      1.21212125e-01 1.21212125e-01 1.51515156e-01 1.51515156e-01
      1.51515156e-01 1.51515156e-01 1.51515156e-01 1.51515156e-01
      1.51515156e-01 1.51515156e-01 1. 1. 1. 1. 9.77941155e-01
      3.67647074e-02 6.61764741e-02 8.08823556e-02 7.35294148e-02
      5.88235296e-02 3.75000000e-01 5.29411793e-01 5.80882370e-01
      4.19117659e-01 3.82352948e-01 4.11764711e-01 4.41176474e-01
      4.70588237e-01 5.22058845e-01 5.73529422e-01 5.36764681e-01
      4.70588237e-01 4.33823526e-01 4.55882341e-01 4.77941185e-01
      5.14705896e-01 6.02941155e-01 5.36764681e-01 4.55882341e-01
      3.82352948e-01 1.91176474e-01 1.39705881e-01 4.41176474e-01
      8.16176474e-01 7.72058845e-01 4.26470578e-01</_>
    <_>
      1.87500000e-01 1.87500000e-01 1.87500000e-01 2.18750000e-01
      2.18750000e-01 2.50000000e-01 2.50000000e-01 2.81250000e-01
      3.75000000e-01 4.68750000e-01 5.31250000e-01 6.25000000e-01
      7.18750000e-01 7.50000000e-01 7.81250000e-01 8.12500000e-01
      8.75000000e-01 8.75000000e-01 1. 9.68750000e-01 9.37500000e-01
      8.75000000e-01 7.18750000e-01 7.18750000e-01 7.50000000e-01
      7.81250000e-01 6.56250000e-01 4.06250000e-01 1.56250000e-01
      1.56250000e-01 1.56250000e-01 1.87500000e-01 3.43750000e-01
      6.25000000e-01 7.50000000e-01 7.81250000e-01 7.81250000e-01
      8.12500000e-01 7.81250000e-01 7.50000000e-01 6.56250000e-01
      6.25000000e-01 6.25000000e-01 7.18750000e-01 7.81250000e-01
      8.12500000e-01 6.87500000e-01 5.62500000e-01 6.87500000e-01
      7.18750000e-01 6.87500000e-01 6.25000000e-01 4.37500000e-01
      1.56250000e-01 9.37500000e-02 1.25000000e-01 1.56250000e-01
      2.50000000e-01 4.06250000e-01 5.62500000e-01 6.25000000e-01
      6.87500000e-01 7.50000000e-01 7.81250000e-01 8.12500000e-01
      7.81250000e-01 5.31250000e-01 4.06250000e-01 5.93750000e-01
      8.12500000e-01 8.43750000e-01 8.75000000e-01 8.12500000e-01
      5.62500000e-01 7.18750000e-01 8.43750000e-01 7.81250000e-01
      7.50000000e-01 6.87500000e-01 5.62500000e-01 5.62500000e-01
      6.56250000e-01 6.87500000e-01 7.50000000e-01 7.18750000e-01
      8.43750000e-01 6.87500000e-01 6.25000000e-01 4.37500000e-01
      2.50000000e-01 6.25000000e-02 6.25000000e-02 3.43750000e-01
      5.93750000e-01 7.18750000e-01 7.81250000e-01 8.75000000e-01
      8.12500000e-01 5.31250000e-01 3.75000000e-01 5.31250000e-01
      6.25000000e-01 7.50000000e-01 8.12500000e-01 8.75000000e-01
      8.12500000e-01 7.50000000e-01 8.12500000e-01 8.12500000e-01
      7.81250000e-01 6.56250000e-01 2.18750000e-01 0. 0. 0. 0. 0. 0. 0.
      7.18750000e-01 9.06250000e-01 1. 1. 1. 9.68750000e-01
      8.43750000e-01 8.12500000e-01 8.43750000e-01 6.87500000e-01
      5.93750000e-01 4.68750000e-01 1.25000000e-01 6.25000000e-02 0. 0.
      0. 7.61904791e-02 8.57142881e-02 9.52380970e-02 3.14285725e-01
      5.71428597e-01 7.23809540e-01 7.71428585e-01 8.00000012e-01
      7.42857158e-01 7.23809540e-01 7.14285731e-01 7.14285731e-01
      8.19047630e-01 8.76190484e-01 8.76190484e-01 9.14285779e-01
      9.14285779e-01 9.33333397e-01 9.23809588e-01 8.95238101e-01
      8.57142866e-01 8.85714293e-01 8.76190484e-01 8.85714293e-01 1.
      9.71428633e-01 9.61904824e-01 9.14285779e-01 8.00000012e-01
      6.47619069e-01 4.00000006e-01 2.00000003e-01 1.61904767e-01
      1.52380958e-01 1.52380958e-01 1.52380958e-01</_>
    <_>
      1. 1. 1. 1. 1. 1. 1. 1. 1. 1.66666672e-01 2.22222224e-01
      6.11111104e-01 7.50000000e-01 7.50000000e-01 7.50000000e-01
      7.22222209e-01 8.05555582e-01 8.33333313e-01 8.61111104e-01
      8.05555582e-01 7.22222209e-01 6.94444478e-01 6.94444478e-01
      6.11111104e-01 1.11111112e-01 8.33333358e-02 8.33333313e-01
      8.61111104e-01 8.88888896e-01 8.88888896e-01 8.88888896e-01
      5.27777791e-01 5.27777791e-01 5.27777791e-01 5.55555582e-01
      6.11111104e-01 6.11111104e-01 5.00000000e-01 3.61111104e-01
      2.50000000e-01 1.11111112e-01 5.55555560e-02 1.38888896e-01
      1.94444448e-01 1.94444448e-01 1.94444448e-01 1.38888896e-01
      5.55555560e-02 1.94444448e-01 3.61111104e-01 4.44444448e-01
      5.00000000e-01 5.83333313e-01 5.55555582e-01 6.11111104e-01
      6.38888896e-01 6.66666687e-01 6.11111104e-01 7.22222209e-01
      6.66666687e-01 6.38888896e-01 5.27777791e-01 4.72222239e-01
      1.38888896e-01 5.55555560e-02 1.66666672e-01 2.77777791e-01
      3.05555552e-01 4.16666657e-01 4.44444448e-01 5.00000000e-01
      5.55555582e-01 5.55555582e-01 6.38888896e-01 8.61111104e-01
      8.88888896e-01 8.88888896e-01 8.33333313e-01 4.16666657e-01
      1.66666672e-01 5.55555560e-02 5.55555560e-02 2.22222224e-01
      2.50000000e-01 3.33333343e-01 4.44444448e-01 4.72222239e-01
      5.00000000e-01 5.00000000e-01 5.00000000e-01 6.38888896e-01
      7.77777791e-01 8.05555582e-01 8.05555582e-01 7.77777791e-01
      5.55555582e-01 1.38888896e-01 0. 0. 1.38888896e-01 3.05555552e-01
      3.33333343e-01 5.55555582e-01 6.11111104e-01 6.11111104e-01
      5.55555582e-01 4.72222239e-01 5.27777791e-01 5.27777791e-01
      6.38888896e-01 5.55555582e-01 4.72222239e-01 3.88888896e-01
      2.50000000e-01 0. 0. 1.94444448e-01 2.22222224e-01 2.77777791e-01
      3.33333343e-01 4.44444448e-01 4.72222239e-01 3.88888896e-01
      4.16666657e-01 5.83333313e-01 7.50000000e-01 7.77777791e-01
      7.22222209e-01 6.66666687e-01 1.66666672e-01 2.77777780e-02 0.
      2.77777780e-02 3.33333343e-01 1.11111112e-01 0. 1.16504855e-01
      1.94174767e-01 3.98058265e-01 5.43689311e-01 6.69902921e-01
      6.99029148e-01 6.50485456e-01 6.50485456e-01 6.60194159e-01
      6.50485456e-01 6.60194159e-01 6.69902921e-01 7.66990304e-01
      8.15533996e-01 8.25242698e-01 8.64077687e-01 8.73786390e-01
      7.86407769e-01 7.18446612e-01 6.69902921e-01 6.60194159e-01
      7.57281542e-01 7.86407769e-01 8.44660223e-01 9.02912617e-01 1.
      8.73786390e-01 7.37864077e-01 5.72815537e-01 5.33980608e-01
      4.56310689e-01 1.16504855e-01 1.74757287e-01 4.27184463e-01
      8.64077687e-01 8.64077687e-01</_>
    <_>
      1. 1. 1. 1. 1. 1. 1. 1. 1. 1. 1. 1. 1. 1. 1. 1. 1. 1. 1. 1. 1. 1.
      1. 1. 1. 8.88888896e-01 5.55555560e-02 1.11111112e-01
      2.50000000e-01 3.88888896e-01 4.16666657e-01 5.83333313e-01
      6.66666687e-01 6.94444478e-01 6.38888896e-01 5.00000000e-01
      3.05555552e-01 2.77777780e-02 2.77777780e-02 0. 1.11111112e-01
      1.38888896e-01 1.66666672e-01 1.38888896e-01 1.38888896e-01
      1.38888896e-01 1.66666672e-01 6.94444478e-01 6.94444478e-01
      6.11111104e-01 2.77777780e-02 2.77777780e-02 2.77777780e-02
      8.33333358e-02 2.77777780e-02 2.77777780e-02 2.77777780e-02
      2.22222224e-01 3.61111104e-01 3.88888896e-01 4.72222239e-01
      4.44444448e-01 4.16666657e-01 4.72222239e-01 3.88888896e-01
      2.77777791e-01 1.66666672e-01 0. 0. 5.55555560e-02 1.94444448e-01
      2.22222224e-01 2.77777791e-01 3.33333343e-01 3.88888896e-01
      4.72222239e-01 4.72222239e-01 5.55555582e-01 4.44444448e-01
      1.94444448e-01 0. 0. 1.11111112e-01 2.77777791e-01 4.16666657e-01
      3.61111104e-01 3.88888896e-01 3.88888896e-01 4.44444448e-01
      4.16666657e-01 5.00000000e-01 3.61111104e-01 1.38888896e-01 0. 0.
      1.66666672e-01 2.77777791e-01 4.72222239e-01 3.88888896e-01
      3.33333343e-01 3.61111104e-01 4.16666657e-01 4.72222239e-01
      5.00000000e-01 3.88888896e-01 1.66666672e-01 0. 0. 1.66666672e-01
      2.77777791e-01 4.44444448e-01 3.61111104e-01 3.88888896e-01
      3.88888896e-01 4.44444448e-01 4.72222239e-01 5.27777791e-01
      3.88888896e-01 2.50000000e-01 0. 0. 0. 1. 1. 1. 1. 1. 1. 1. 1. 1.
      1. 1. 1. 1. 1. 4.64285731e-01 4.76190478e-01 4.76190478e-01
      6.19047642e-01 8.33333373e-01 9.88095284e-01 9.40476179e-01
      9.52380955e-01 9.04761910e-01 8.57142866e-01 8.80952418e-01
      8.92857134e-01 8.69047642e-01 8.80952418e-01 9.28571463e-01
      9.64285731e-01 1. 9.88095284e-01 9.52380955e-01 8.69047642e-01
      7.73809552e-01 7.85714328e-01 7.85714328e-01 8.69047642e-01
      9.16666687e-01 9.04761910e-01 9.52380955e-01 9.40476179e-01
      8.80952418e-01 7.61904776e-01 5.23809552e-01 4.64285731e-01
      4.76190478e-01 4.76190478e-01 5.71428597e-01 8.45238090e-01</_>
    <_>
      9.39393997e-01 9.39393997e-01 9.69696999e-01 9.69696999e-01
      8.78787875e-01 4.54545468e-01 4.24242437e-01 3.63636374e-01
      4.54545468e-01 5.15151501e-01 8.18181872e-01 8.18181872e-01
      8.48484874e-01 8.48484874e-01 8.48484874e-01 8.18181872e-01
      7.27272749e-01 6.06060624e-01 3.33333343e-01 3.93939406e-01
      6.96969748e-01 7.57575750e-01 8.78787875e-01 8.78787875e-01
      5.45454562e-01 2.12121218e-01 1.51515156e-01 1.81818187e-01
      5.15151501e-01 6.36363626e-01 8.48484874e-01 8.48484874e-01
      7.87878811e-01 9.09090936e-02 0. 0. 0. 0. 0. 2.12121218e-01
      4.84848499e-01 8.18181872e-01 8.78787875e-01 8.78787875e-01
      8.48484874e-01 2.12121218e-01 2.12121218e-01 1.81818187e-01
      1.81818187e-01 1.81818187e-01 1.51515156e-01 1.21212125e-01
      9.09090936e-02 0. 0. 1.21212125e-01 3.03030312e-01 4.54545468e-01
      6.36363626e-01 6.36363626e-01 5.75757623e-01 6.36363626e-01
      6.06060624e-01 5.75757623e-01 6.66666687e-01 6.06060624e-01
      5.15151501e-01 3.03030312e-01 0. 1.51515156e-01 2.42424250e-01
      3.03030312e-01 4.54545468e-01 5.15151501e-01 6.06060624e-01
      6.06060624e-01 6.66666687e-01 6.36363626e-01 6.36363626e-01
      6.66666687e-01 5.75757623e-01 4.24242437e-01 2.12121218e-01
      3.03030312e-02 2.42424250e-01 5.15151501e-01 7.57575750e-01
      8.48484874e-01 8.78787875e-01 7.57575750e-01 6.06060624e-01
      5.45454562e-01 6.06060624e-01 7.57575750e-01 8.78787875e-01
      8.18181872e-01 7.27272749e-01 4.84848499e-01 0. 0. 0. 0. 0.
      2.72727281e-01 5.75757623e-01 8.48484874e-01 8.78787875e-01
      8.48484874e-01 7.87878811e-01 0. 0. 0. 0. 0. 0. 4.24242437e-01
      6.66666687e-01 7.57575750e-01 8.18181872e-01 9.39393997e-01
      9.39393997e-01 9.69696999e-01 9.69696999e-01 9.69696999e-01
      9.69696999e-01 1. 1. 1. 1. 1. 1. 1. 1. 1. 1. 1. 8.98876414e-02
      8.98876414e-02 2.24719107e-01 4.83146071e-01 6.74157321e-01
      8.08988750e-01 8.65168571e-01 8.65168571e-01 7.86516845e-01
      8.20224702e-01 8.31460655e-01 8.53932619e-01 8.76404524e-01
      9.10112381e-01 9.77528095e-01 1. 9.77528095e-01 9.66292143e-01
      9.32584286e-01 9.32584286e-01 9.43820238e-01 9.21348333e-01
      9.32584286e-01 9.43820238e-01 9.55056190e-01 9.55056190e-01
      9.32584286e-01 9.66292143e-01 9.66292143e-01 8.53932619e-01
      7.86516845e-01 6.85393274e-01 5.39325833e-01 3.59550565e-01
      3.25842708e-01 3.59550565e-01</_>
    <_>
      0. 0. 0. 0. 0. 1.47058830e-01 2.94117659e-01 7.05882370e-01
      7.05882370e-01 7.05882370e-01 6.47058845e-01 6.76470578e-01
      7.05882370e-01 7.64705896e-01 7.35294104e-01 7.35294104e-01
      7.05882370e-01 5.88235319e-01 5.00000000e-01 3.23529422e-01
      3.23529422e-01 5.88235319e-01 8.82352948e-01 1. 9.70588267e-01
      8.82352948e-01 7.35294104e-01 8.23529422e-01 5.29411793e-01
      6.47058845e-01 6.47058845e-01 8.52941155e-01 8.52941155e-01
      7.05882370e-01 5.29411793e-01 3.82352948e-01 3.23529422e-01
      2.94117659e-01 1.76470593e-01 2.94117659e-01 3.23529422e-01
      2.64705896e-01 2.94117659e-01 2.94117659e-01 2.64705896e-01
      6.17647052e-01 8.23529422e-01 9.41176474e-01 9.41176474e-01
      9.11764681e-01 9.11764681e-01 5.58823526e-01 4.11764711e-01
      3.23529422e-01 3.23529422e-01 6.76470578e-01 7.35294104e-01
      8.23529422e-01 9.41176474e-01 8.52941155e-01 6.47058845e-01
      4.11764711e-01 5.00000000e-01 7.35294104e-01 8.23529422e-01
      8.52941155e-01 9.11764681e-01 6.76470578e-01 5.58823526e-01
      6.17647052e-01 6.47058845e-01 6.76470578e-01 6.47058845e-01
      7.94117630e-01 7.94117630e-01 7.64705896e-01 6.47058845e-01
      5.58823526e-01 2.64705896e-01 2.05882356e-01 3.82352948e-01
      6.47058845e-01 7.35294104e-01 7.94117630e-01 6.76470578e-01
      6.17647052e-01 6.17647052e-01 5.58823526e-01 5.58823526e-01
      5.88235319e-01 6.17647052e-01 7.05882370e-01 7.05882370e-01
      5.29411793e-01 5.00000000e-01 3.82352948e-01 1.47058830e-01
      1.47058830e-01 1.47058830e-01 1.17647059e-01 1.17647059e-01
      2.94117659e-01 4.70588237e-01 7.05882370e-01 8.52941155e-01
      8.23529422e-01 6.76470578e-01 5.00000000e-01 3.82352948e-01
      2.05882356e-01 2.05882356e-01 2.05882356e-01 2.05882356e-01
      2.05882356e-01 2.05882356e-01 3.23529422e-01 5.29411793e-01
      6.17647052e-01 6.76470578e-01 7.05882370e-01 6.17647052e-01
      5.00000000e-01 4.41176474e-01 4.41176474e-01 5.29411793e-01
      5.88235319e-01 7.35294104e-01 6.76470578e-01 5.88235319e-01
      2.94117659e-01 8.82352963e-02 0. 0. 0. 0. 0. 5.37634417e-02
      5.37634417e-02 4.94623661e-01 6.66666687e-01 8.17204297e-01
      8.60215068e-01 8.17204297e-01 6.88172042e-01 6.98924720e-01
      6.88172042e-01 6.88172042e-01 7.63440847e-01 8.92473102e-01
      9.46236551e-01 9.67741907e-01 1. 9.56989229e-01 7.84946263e-01
      7.41935492e-01 7.31182814e-01 7.84946263e-01 8.17204297e-01
      8.17204297e-01 9.46236551e-01 8.92473102e-01 7.63440847e-01
      6.98924720e-01 5.59139788e-01 2.47311831e-01 4.08602148e-01
      9.13978517e-01 9.67741907e-01 9.89247322e-01 9.56989229e-01
      6.77419364e-01 1.82795703e-01</_>
    <_>
      1. 1. 1. 1. 1. 1. 1. 1. 1. 9.72222209e-01 8.33333313e-01
      6.38888896e-01 5.27777791e-01 5.83333313e-01 6.11111104e-01
      6.94444478e-01 7.22222209e-01 7.22222209e-01 6.94444478e-01
      6.66666687e-01 6.66666687e-01 5.00000000e-01 4.16666657e-01
      2.50000000e-01 3.05555552e-01 3.88888896e-01 4.72222239e-01
      5.27777791e-01 5.55555582e-01 6.66666687e-01 7.22222209e-01
      6.94444478e-01 5.27777791e-01 5.55555560e-02 2.77777780e-02
      5.55555560e-02 2.77777780e-02 2.77777780e-02 0. 2.77777780e-02
      3.33333343e-01 4.72222239e-01 6.11111104e-01 6.11111104e-01
      5.83333313e-01 4.16666657e-01 3.05555552e-01 1.66666672e-01
      1.66666672e-01 3.61111104e-01 4.16666657e-01 5.55555582e-01
      4.44444448e-01 3.88888896e-01 3.88888896e-01 5.55555582e-01
      5.00000000e-01 4.44444448e-01 3.05555552e-01 2.50000000e-01
      3.05555552e-01 3.61111104e-01 3.05555552e-01 1.94444448e-01
      3.33333343e-01 4.44444448e-01 5.00000000e-01 5.27777791e-01
      6.11111104e-01 5.83333313e-01 5.55555582e-01 5.27777791e-01
      5.55555582e-01 5.55555582e-01 4.44444448e-01 3.05555552e-01
      5.55555560e-02 5.55555560e-02 5.55555560e-02 5.55555560e-02
      1.94444448e-01 3.61111104e-01 4.72222239e-01 4.72222239e-01
      4.16666657e-01 4.16666657e-01 3.33333343e-01 2.77777791e-01
      1.94444448e-01 1.38888896e-01 1.66666672e-01 3.33333343e-01
      4.16666657e-01 5.00000000e-01 5.55555582e-01 4.72222239e-01
      4.72222239e-01 4.44444448e-01 5.27777791e-01 5.27777791e-01
      4.16666657e-01 1.38888896e-01 1.38888896e-01 1.94444448e-01
      5.55555582e-01 7.22222209e-01 8.61111104e-01 9.72222209e-01 1.
      9.16666687e-01 7.77777791e-01 6.38888896e-01 5.27777791e-01
      3.61111104e-01 2.77777791e-01 2.22222224e-01 2.22222224e-01
      2.22222224e-01 3.05555552e-01 7.50000000e-01 9.16666687e-01 1. 1.
      1. 1. 1. 1. 1. 1. 9.44444478e-01 8.61111104e-01 7.50000000e-01
      6.94444478e-01 6.38888896e-01 5.00000000e-01 4.44444448e-01 1.
      9.55555558e-01 8.66666675e-01 7.55555570e-01 6.77777767e-01
      6.77777767e-01 7.22222269e-01 7.44444489e-01 6.77777767e-01
      7.11111128e-01 8.44444454e-01 8.88888896e-01 8.88888896e-01
      9.33333337e-01 9.33333337e-01 9.55555558e-01 9.88888919e-01 1. 1.
      9.77777779e-01 9.33333337e-01 8.88888896e-01 8.55555594e-01
      8.11111152e-01 7.44444489e-01 6.88888907e-01 6.66666687e-01
      6.44444466e-01 6.22222245e-01 7.44444489e-01 7.33333349e-01
      6.88888907e-01 6.55555546e-01 5.88888884e-01 4.33333337e-01
      4.44444448e-01</_>
    <_>
      1. 1. 1. 1. 1. 1. 1. 1. 1. 1. 9.44444478e-01 3.33333343e-01
      3.05555552e-01 3.88888896e-01 5.27777791e-01 5.00000000e-01
      4.72222239e-01 6.94444478e-01 7.77777791e-01 7.77777791e-01
      6.94444478e-01 5.83333313e-01 3.88888896e-01 2.77777791e-01
      2.77777791e-01 5.55555582e-01 8.05555582e-01 8.05555582e-01
      3.61111104e-01 3.33333343e-01 3.33333343e-01 3.33333343e-01
      3.05555552e-01 3.05555552e-01 3.05555552e-01 2.50000000e-01
      2.50000000e-01 2.50000000e-01 2.50000000e-01 2.77777791e-01
      2.50000000e-01 2.50000000e-01 2.50000000e-01 2.77777791e-01
      5.00000000e-01 5.83333313e-01 4.72222239e-01 4.16666657e-01
      3.61111104e-01 4.44444448e-01 5.27777791e-01 5.55555582e-01
      4.16666657e-01 2.22222224e-01 1.94444448e-01 1.94444448e-01
      2.77777791e-01 3.88888896e-01 4.72222239e-01 5.00000000e-01
      4.16666657e-01 4.16666657e-01 4.44444448e-01 4.44444448e-01
      5.00000000e-01 3.88888896e-01 1.94444448e-01 1.66666672e-01
      1.66666672e-01 3.05555552e-01 4.16666657e-01 4.44444448e-01
      3.88888896e-01 4.44444448e-01 4.44444448e-01 4.72222239e-01
      4.72222239e-01 4.72222239e-01 3.33333343e-01 1.66666672e-01
      1.38888896e-01 1.38888896e-01 3.05555552e-01 4.16666657e-01
      4.44444448e-01 4.16666657e-01 3.88888896e-01 4.16666657e-01
      4.44444448e-01 5.00000000e-01 4.44444448e-01 3.33333343e-01
      1.38888896e-01 1.11111112e-01 1.11111112e-01 2.77777791e-01
      3.88888896e-01 3.88888896e-01 3.61111104e-01 3.88888896e-01
      4.16666657e-01 4.16666657e-01 5.00000000e-01 4.16666657e-01
      2.77777791e-01 1.11111112e-01 2.77777780e-02 2.77777780e-02
      5.55555560e-02 5.55555560e-02 5.55555560e-02 8.33333358e-02
      8.05555582e-01 8.61111104e-01 8.61111104e-01 8.61111104e-01
      8.61111104e-01 8.33333313e-01 8.05555582e-01 7.77777791e-01
      6.94444478e-01 6.38888896e-01 5.27777791e-01 5.27777791e-01
      6.94444478e-01 6.94444478e-01 7.77777791e-01 8.88888896e-01 1. 1.
      1. 1. 1. 9.44444478e-01 8.61111104e-01 8.61111104e-01
      1.71641782e-01 1.71641782e-01 1.86567158e-01 2.31343284e-01
      2.53731340e-01 3.43283564e-01 4.10447747e-01 4.70149249e-01
      4.40298498e-01 4.25373137e-01 4.32835817e-01 4.40298498e-01
      5.00000000e-01 5.29850721e-01 5.29850721e-01 5.22388041e-01
      5.29850721e-01 4.92537290e-01 4.55223858e-01 4.62686568e-01
      4.70149249e-01 4.77611929e-01 4.47761178e-01 3.95522386e-01
      3.73134315e-01 3.65671635e-01 4.02985066e-01 4.85074610e-01
      5.67164183e-01 6.64179087e-01 7.76119411e-01 8.43283534e-01
      9.32835817e-01 9.47761178e-01 9.85074580e-01 1.</_>
    <_>
      2.50000000e-01 1.94444448e-01 5.55555560e-02 0. 0. 0. 0. 0.
      1.66666672e-01 3.88888896e-01 7.50000000e-01 7.50000000e-01
      7.50000000e-01 8.05555582e-01 8.33333313e-01 8.33333313e-01
      8.33333313e-01 8.33333313e-01 8.05555582e-01 8.05555582e-01
      7.77777791e-01 8.05555582e-01 9.44444478e-01 9.44444478e-01
      9.44444478e-01 9.44444478e-01 9.44444478e-01 9.44444478e-01
      9.44444478e-01 9.44444478e-01 9.44444478e-01 9.44444478e-01
      9.44444478e-01 9.16666687e-01 1. 1. 1. 1. 1. 1. 1. 1.
      8.33333313e-01 5.55555582e-01 3.61111104e-01 2.50000000e-01
      1.11111112e-01 4.44444448e-01 5.83333313e-01 7.50000000e-01
      7.77777791e-01 8.05555582e-01 8.61111104e-01 8.61111104e-01
      5.55555582e-01 2.50000000e-01 2.50000000e-01 1.66666672e-01
      1.94444448e-01 1.94444448e-01 1.38888896e-01 5.55555560e-02
      8.33333358e-02 2.22222224e-01 3.33333343e-01 4.72222239e-01
      5.83333313e-01 6.38888896e-01 6.38888896e-01 6.94444478e-01
      7.22222209e-01 6.66666687e-01 6.38888896e-01 6.11111104e-01
      5.83333313e-01 4.16666657e-01 2.50000000e-01 1.66666672e-01
      3.33333343e-01 6.11111104e-01 6.38888896e-01 6.66666687e-01
      7.22222209e-01 7.50000000e-01 5.55555582e-01 3.33333343e-01
      3.05555552e-01 3.05555552e-01 3.88888896e-01 6.94444478e-01
      7.77777791e-01 7.22222209e-01 6.94444478e-01 5.83333313e-01
      4.72222239e-01 1.94444448e-01 3.61111104e-01 4.44444448e-01
      5.55555582e-01 6.11111104e-01 5.83333313e-01 6.38888896e-01
      6.11111104e-01 5.55555582e-01 6.11111104e-01 6.11111104e-01
      5.83333313e-01 5.00000000e-01 3.61111104e-01 2.22222224e-01
      1.66666672e-01 0. 0. 0. 0. 0. 1.38888896e-01 5.00000000e-01
      6.66666687e-01 7.22222209e-01 7.22222209e-01 7.50000000e-01
      7.50000000e-01 6.66666687e-01 4.72222239e-01 0. 0. 0. 0. 0. 0. 0.
      0. 0. 0. 0. 1.32653058e-01 1.32653058e-01 2.65306115e-01
      3.26530606e-01 6.02040827e-01 7.65306115e-01 8.16326499e-01
      8.97959173e-01 8.67346942e-01 8.46938729e-01 8.16326499e-01
      7.55102038e-01 7.24489808e-01 7.85714269e-01 7.95918345e-01
      8.06122422e-01 8.06122422e-01 8.26530576e-01 8.16326499e-01
      7.95918345e-01 7.95918345e-01 7.75510192e-01 7.44897962e-01
      7.24489808e-01 7.34693885e-01 7.34693885e-01 8.26530576e-01
      9.79591846e-01 1. 9.79591846e-01 9.18367326e-01 7.44897962e-01
      5.40816307e-01 3.77551019e-01 4.28571433e-01 5.40816307e-01</_>
    <_>
      9.44444478e-01 9.16666687e-01 7.77777791e-01 3.61111104e-01
      2.77777791e-01 4.44444448e-01 5.27777791e-01 4.44444448e-01
      4.72222239e-01 7.22222209e-01 7.50000000e-01 7.77777791e-01
      7.77777791e-01 6.38888896e-01 5.00000000e-01 2.77777791e-01
      2.22222224e-01 2.22222224e-01 5.00000000e-01 8.05555582e-01
      8.33333313e-01 6.66666687e-01 3.61111104e-01 3.61111104e-01
      3.88888896e-01 3.88888896e-01 3.88888896e-01 5.00000000e-01
      8.05555582e-01 7.22222209e-01 4.72222239e-01 1.94444448e-01
      1.94444448e-01 1.94444448e-01 2.22222224e-01 2.22222224e-01
      1.66666672e-01 8.33333358e-02 8.33333358e-02 5.00000000e-01
      7.77777791e-01 8.05555582e-01 7.50000000e-01 3.88888896e-01
      3.88888896e-01 3.61111104e-01 3.61111104e-01 3.88888896e-01
      5.00000000e-01 8.05555582e-01 7.50000000e-01 5.83333313e-01
      3.33333343e-01 1.94444448e-01 1.94444448e-01 5.83333313e-01
      6.94444478e-01 6.11111104e-01 3.88888896e-01 3.61111104e-01
      3.61111104e-01 3.33333343e-01 3.33333343e-01 3.61111104e-01
      5.00000000e-01 7.22222209e-01 6.38888896e-01 4.44444448e-01
      1.94444448e-01 1.94444448e-01 1.94444448e-01 2.77777791e-01
      5.55555582e-01 7.22222209e-01 6.11111104e-01 5.27777791e-01
      4.44444448e-01 4.16666657e-01 3.88888896e-01 3.61111104e-01
      5.83333313e-01 6.94444478e-01 5.55555582e-01 3.33333343e-01
      1.66666672e-01 1.94444448e-01 2.50000000e-01 2.50000000e-01
      5.55555582e-01 6.66666687e-01 6.38888896e-01 4.72222239e-01
      4.16666657e-01 3.88888896e-01 3.88888896e-01 4.44444448e-01
      5.00000000e-01 6.66666687e-01 6.11111104e-01 3.88888896e-01
      2.50000000e-01 1.66666672e-01 1.66666672e-01 1.66666672e-01
      3.33333343e-01 5.83333313e-01 6.94444478e-01 6.38888896e-01
      5.00000000e-01 4.16666657e-01 3.88888896e-01 4.16666657e-01
      4.44444448e-01 6.11111104e-01 6.94444478e-01 5.83333313e-01
      3.88888896e-01 4.16666657e-01 9.44444478e-01 9.16666687e-01
      8.05555582e-01 6.66666687e-01 3.33333343e-01 1.11111112e-01 0. 0.
      4.72222239e-01 9.72222209e-01 9.72222209e-01 1. 1. 1. 1. 1. 1. 1.
      6.71641752e-02 6.71641752e-02 1.26865670e-01 1.41791046e-01
      1.41791046e-01 1.19402982e-01 1.56716421e-01 3.05970132e-01
      4.55223858e-01 4.92537290e-01 4.85074610e-01 5.07462680e-01
      4.92537290e-01 4.62686568e-01 4.62686568e-01 4.77611929e-01
      5.22388041e-01 5.52238822e-01 5.67164183e-01 5.37313402e-01
      4.77611929e-01 5.00000000e-01 5.07462680e-01 4.92537290e-01
      4.85074610e-01 4.92537290e-01 5.29850721e-01 5.07462680e-01
      5.89552224e-01 7.61193991e-01 9.25373137e-01 9.70149219e-01
      9.70149219e-01 9.62686539e-01 9.92537320e-01 1.</_>
    <_>
      1. 1. 8.33333313e-01 9.44444478e-01 1. 8.61111104e-01
      3.05555552e-01 3.61111104e-01 4.72222239e-01 3.61111104e-01
      3.33333343e-01 5.55555582e-01 8.33333313e-01 3.88888896e-01
      4.16666657e-01 7.50000000e-01 5.00000000e-01 5.55555582e-01
      3.88888896e-01 1.66666672e-01 1.66666672e-01 1.38888896e-01
      1.38888896e-01 2.50000000e-01 3.88888896e-01 5.00000000e-01
      5.55555582e-01 5.55555582e-01 5.27777791e-01 5.00000000e-01
      6.38888896e-01 8.33333313e-01 7.77777791e-01 6.11111104e-01
      4.16666657e-01 1.94444448e-01 1.94444448e-01 2.22222224e-01
      2.22222224e-01 2.22222224e-01 3.05555552e-01 2.22222224e-01
      1.94444448e-01 1.94444448e-01 5.55555560e-02 2.77777780e-02
      3.33333343e-01 6.38888896e-01 6.38888896e-01 4.16666657e-01
      3.05555552e-01 3.33333343e-01 3.61111104e-01 3.88888896e-01
      3.33333343e-01 6.38888896e-01 6.94444478e-01 5.27777791e-01
      1.11111112e-01 8.33333358e-02 8.33333358e-02 1.66666672e-01
      4.16666657e-01 5.55555582e-01 6.66666687e-01 5.27777791e-01
      5.00000000e-01 3.33333343e-01 3.33333343e-01 3.88888896e-01
      5.27777791e-01 7.50000000e-01 7.77777791e-01 6.11111104e-01
      1.94444448e-01 1.94444448e-01 1.38888896e-01 8.33333358e-02
      3.61111104e-01 6.66666687e-01 7.22222209e-01 5.55555582e-01
      4.44444448e-01 4.72222239e-01 4.44444448e-01 4.44444448e-01
      5.00000000e-01 5.83333313e-01 7.77777791e-01 6.38888896e-01
      3.88888896e-01 1.66666672e-01 1.94444448e-01 1.94444448e-01
      3.88888896e-01 6.66666687e-01 8.61111104e-01 7.77777791e-01
      5.83333313e-01 5.00000000e-01 3.88888896e-01 3.88888896e-01
      4.44444448e-01 5.55555582e-01 7.22222209e-01 6.11111104e-01
      4.44444448e-01 1.66666672e-01 1.66666672e-01 1.66666672e-01
      2.50000000e-01 5.00000000e-01 6.94444478e-01 7.22222209e-01
      5.55555582e-01 4.72222239e-01 4.16666657e-01 4.16666657e-01
      4.44444448e-01 5.27777791e-01 7.77777791e-01 7.22222209e-01
      5.55555582e-01 1.94444448e-01 3.61111104e-01 1. 1. 1. 1. 1. 1. 1.
      1. 1. 1. 1. 2.13235289e-01 1.98529407e-01 1.91176474e-01
      2.27941170e-01 3.08823526e-01 4.48529422e-01 4.92647052e-01
      4.55882341e-01 4.26470578e-01 4.04411763e-01 4.04411763e-01
      4.11764711e-01 4.41176474e-01 4.92647052e-01 5.44117630e-01
      5.58823526e-01 5.58823526e-01 4.55882341e-01 4.11764711e-01
      4.19117659e-01 4.48529422e-01 4.63235289e-01 4.55882341e-01
      4.63235289e-01 4.70588237e-01 5.22058845e-01 4.48529422e-01
      4.70588237e-01 4.55882341e-01 6.61764681e-01 8.23529422e-01
      8.23529422e-01 9.85294104e-01 1. 8.52941155e-01 6.25000000e-01</_>
    <_>
      0. 0. 0. 0. 0. 0. 0. 0. 0. 0. 1. 1. 1. 7.50000000e-01
      5.55555582e-01 7.22222209e-01 8.05555582e-01 8.33333313e-01
      8.88888896e-01 8.88888896e-01 8.88888896e-01 8.33333313e-01
      8.05555582e-01 8.61111104e-01 8.88888896e-01 8.88888896e-01
      7.50000000e-01 8.33333358e-02 6.94444478e-01 8.61111104e-01
      9.16666687e-01 9.16666687e-01 9.16666687e-01 6.11111104e-01
      5.00000000e-01 5.27777791e-01 6.11111104e-01 9.16666687e-01
      8.61111104e-01 7.50000000e-01 6.94444478e-01 4.72222239e-01
      2.22222224e-01 2.77777780e-02 2.77777791e-01 3.88888896e-01
      3.33333343e-01 2.77777791e-01 2.77777791e-01 1.38888896e-01
      2.77777791e-01 3.61111104e-01 2.77777791e-01 2.50000000e-01
      4.44444448e-01 6.38888896e-01 7.77777791e-01 8.33333313e-01
      8.88888896e-01 7.22222209e-01 5.00000000e-01 3.61111104e-01
      2.50000000e-01 1.66666672e-01 8.33333358e-02 5.83333313e-01
      6.94444478e-01 7.77777791e-01 8.33333313e-01 8.61111104e-01
      3.88888896e-01 3.88888896e-01 4.16666657e-01 6.66666687e-01
      7.50000000e-01 6.38888896e-01 5.55555582e-01 4.72222239e-01
      3.05555552e-01 8.33333358e-02 3.05555552e-01 5.00000000e-01
      5.00000000e-01 6.11111104e-01 6.66666687e-01 6.66666687e-01
      6.38888896e-01 6.11111104e-01 6.38888896e-01 7.22222209e-01
      6.66666687e-01 6.11111104e-01 4.72222239e-01 2.50000000e-01 0.
      2.50000000e-01 6.94444478e-01 7.77777791e-01 8.05555582e-01
      8.61111104e-01 6.66666687e-01 6.38888896e-01 5.55555582e-01
      6.11111104e-01 8.33333313e-01 8.05555582e-01 7.50000000e-01
      6.66666687e-01 3.33333343e-01 0. 1.11111112e-01 3.33333343e-01
      5.27777791e-01 6.38888896e-01 7.22222209e-01 6.11111104e-01
      5.83333313e-01 6.38888896e-01 5.83333313e-01 7.22222209e-01
      6.11111104e-01 5.27777791e-01 4.16666657e-01 2.77777791e-01
      6.11111104e-01 9.16666687e-01 8.33333313e-01 1.38888896e-01 0. 0.
      0. 0. 0. 0. 0. 0. 1.29999995e-01 1.19999997e-01 2.19999999e-01
      6.29999995e-01 8.10000002e-01 8.70000005e-01 9.39999998e-01
      9.49999988e-01 1. 8.79999995e-01 7.59999990e-01 7.69999981e-01
      7.40000010e-01 7.59999990e-01 7.89999962e-01 8.19999993e-01
      7.79999971e-01 7.79999971e-01 8.10000002e-01 7.99999952e-01
      7.59999990e-01 6.89999998e-01 7.09999979e-01 6.99999988e-01
      6.80000007e-01 6.80000007e-01 6.89999998e-01 6.89999998e-01
      7.89999962e-01 8.39999974e-01 7.89999962e-01 7.99999952e-01
      7.19999969e-01 5.60000002e-01 2.69999981e-01 3.99999991e-02</_>
    <_>
      3.05555552e-01 3.05555552e-01 3.05555552e-01 3.05555552e-01
